-0.16158707 
-0.02658654 
0.09508005 
0.008245778 
-0.049554225 
-0.0040978766 
-0.047890764 
0.03293461 
0.09200875 
-0.07065425 
-0.08339064 
0.061168 
-0.015688771 
0.08602949 
0.027660828 
0.1731524 
0.08386449 
0.23006403 
0.016776487 
-0.07006687 
0.023660082 
0.003315251 
0.16165249 
-0.26989537 
0.012453356 
0.16905253 
-0.011737212 
-0.0015993478 
-0.0023759692 
0.16427587 
0.12747048 
0.10202007 
0.05374023 
-0.014873873 
-0.24720122 
0.09660528 
0.089848734 
0.21134123 
0.023251563 
0.0055198898 
0.020726295 
0.23958808 
-0.05464271 
0.31659505 
-0.19447415 
-0.12018337 
0.12696773 
-0.12186855 
-0.027044969 
0.19481027 
0.26827204 
-0.18609469 
0.1591988 
-0.21800177 
-0.102904804 
-0.11579468 
0.061592158 
-0.22793245 
0.08777939 
-0.02353722 
-0.11835296 
0.043880608 
0.16824488 
0.10196687 
-0.07486562 
0.05928829 
-0.027941521 
-0.16388002 
0.05371397 
-0.11599328 
0.019972667 
-0.055464063 
-0.02835216 
-0.008093317 
-0.031672787 
0.021880409 
0.16071738 
0.05185441 
0.21580893 
-0.19203874 
0.07114353 
-0.17601718 
-0.10796762 
-0.19777603 
-0.09945852 
-0.045994937 
0.20048115 
0.23232983 
0.083961025 
0.0036541086 
0.2533653 
0.15915817 
0.026924672 
-0.0013469805 
0.01854844 
-0.08739099 
-0.185585 
-0.04430331 
-0.07842037 
0.09874106 
-0.27195475 
-0.06966461 
-0.05398818 
0.04972732 
0.43606383 