-1.9020745 -2.1725917 1.1068581 -2.0001316 -0.5413216 -0.9384927 -3.5375757 0.46320915 -0.50590825 -0.48508424 2.3112862 -0.6586954 2.0161498 -1.6857427 -1.015076 -0.7446254 -1.5000991 -0.10432284 0.901473 -0.6425857 -3.4732718 -0.7703638 -3.2017014 -0.7429949 -1.0811155 1.0994635 -0.76291984 0.84439534 -1.9822671 -2.0443327 -0.51709545 -1.8158972 -0.96356934 -0.6631279 -2.2368064 -0.38734078 -0.0024707194 1.9021739 -0.05979894 0.2689348 2.0949724 -0.48119354 0.067068696 -0.228118 -0.28937596 2.2545671 -0.19628447 -0.46304968 -1.7441437 1.3159192 -2.3819864 2.474684 -0.9394448 -1.0218734 -1.6506063 0.13870716 -2.350862 -1.3256775 -0.8707067 -1.5076272 -0.7116489 -1.2537197 -1.990552 -1.779323 -1.3129001 -0.73376817 -1.577764 -1.040479 -0.89802605 2.1299882 1.2070667 -1.8551961 -0.6917984 -2.1929512 -3.6936307 -0.4639347 -1.2673881 -0.41994736 -1.7578554 1.3754987 -1.7984537 -0.471 -0.5265114 0.34737828 -1.4729337 -0.4291051 -2.358801 -1.4359719 2.4829507 -1.3131516 -2.264604 1.0561041 1.9211134 0.22955272 -0.9491819 3.870614 0.6970246 0.33892465 -0.38835457 -0.8267432 -1.5511252 0.039889555 0.43206695 0.68740284 
0.20543504 0.19996837 1.2643194 -2.3877304 0.122946136 -0.2655129 -1.1433228 -0.4649453 -0.95455253 -1.3921682 -0.45457292 -0.35521173 0.85453373 0.007326706 -1.4649503 -0.45036396 2.2247562 -1.3481628 -0.46133146 -1.7271756 0.7002898 -0.16237752 0.35826635 -3.2508852 -1.030978 -2.2385817 -0.7407961 -0.8960736 -0.75181615 -0.56312215 -0.41112217 -2.295524 -1.2707541 -0.72662956 0.8990463 -0.77836627 -0.16116118 2.4034343 -1.8402588 -1.5052283 -0.3792504 -0.3924569 -2.1410532 -0.08124939 -0.20185548 -0.07346818 -0.25382233 0.589643 0.52459407 -1.0312382 -1.3182536 -1.3940779 -0.09394837 -2.1419084 -1.3540906 0.41903722 -0.2623245 2.772102 -0.6220725 0.43826672 -1.3612045 -0.4476357 -2.5690835 -2.1459103 -0.98632586 0.091658086 -0.96445596 -2.134132 -1.7295009 0.7026072 -0.5976055 1.6504233 -1.0568674 0.34657425 -1.0763446 1.6408694 -3.0542486 -1.5326678 -0.74284106 -0.8968843 -2.392395 1.4532819 -0.052267846 2.9963546 0.026091022 -1.170305 0.13006867 -2.9701917 0.35973617 -2.7827916 -1.3912991 -1.2176645 -0.9754303 -1.4203944 -0.13582744 -1.0122088 0.9740443 -0.70286405 -1.2847358 -0.96728444 -0.02988987 0.5201832 -1.3818521 0.38829148 
-0.8452245 -1.1676784 0.17659532 -0.8223123 -0.6863381 -2.6970787 -0.7478932 -2.0149596 -2.8560255 -0.27322575 -1.1700033 -1.2586254 -0.027928634 -2.952771 0.07237253 -2.6593945 -0.82733804 -1.7149875 -0.17628334 -1.2844204 -0.29511824 0.7380954 -0.1839699 -1.5759289 0.63400865 0.004499662 -0.29817855 -1.4721 -2.7702768 -1.9932897 1.056828 -2.270566 0.20489055 -0.7463988 0.84101576 -1.3235887 -0.6083272 -0.90852445 -3.078807 -1.1391568 -0.12307021 -0.65331995 -0.30300075 1.6539903 -0.7092838 0.25774238 -1.958355 -1.2466712 0.010044978 -0.67877126 0.021603042 -0.231832 -0.53176045 -0.90242565 -0.32952774 1.4883958 0.05871963 -0.6813251 -2.0527537 -1.9157615 -2.0239992 -0.19027668 -2.0022447 -2.121368 0.7676862 -1.5793936 -1.2438259 -2.4373937 -0.64896065 1.2115018 0.001158786 2.2181563 -1.1473268 -1.2294881 0.78795373 -1.7496959 -1.816482 -0.12995249 0.23621565 -1.6146721 -0.520675 1.3226886 -0.8442405 2.0677571 -0.5799625 2.7372303 -0.08841079 -1.5034672 -0.6120548 -0.92847943 -0.3485221 1.5440476 -0.5887145 -0.03748073 1.9967444 -0.42173126 -0.34280542 0.1256006 0.80199504 0.5953294 0.17637627 -0.65413004 -2.1340706 0.035715137 
1.2537999 -1.3990198 -2.029013 -0.67644924 -1.3205576 -0.94481826 -0.5547459 -2.1405776 -2.4180853 -1.2976927 -1.8956587 -2.340422 -1.0337731 -1.6056304 -3.3763084 -2.4103684 -1.5735339 -1.2084702 -2.0116289 0.3063618 -0.5150662 1.2718177 0.15337399 -0.86141795 0.84659076 -0.87456405 -0.3300824 -1.3264543 -0.94749326 -0.052772384 2.8488538 -0.9230125 -1.0932143 -0.98601216 -0.12511715 -0.84989655 -0.29156384 -1.75722 -0.8556486 1.6823254 -0.9164395 1.2138252 -1.2747616 0.32054535 -1.703724 0.5618436 -2.122539 -0.36492515 1.395763 0.16471577 -1.409648 -2.9057734 -1.1910847 -1.4589008 -0.6502953 -1.3378991 -1.7099894 -0.38970914 -0.06805474 -0.98054624 -2.3215108 1.3709575 1.3782603 0.6666421 0.3989071 -1.8286654 -1.6014671 -0.5635801 -1.8473442 1.0387193 -1.9796219 0.55332273 -1.0106931 0.7971369 -2.4275992 -1.4452769 0.6298067 0.44031048 -0.4480911 1.3842199 -0.500792 -0.018319061 -2.185152 -1.1067212 0.035508472 -1.7601933 -1.1607988 1.6380816 -2.9745688 1.3988823 0.79905725 -0.5978337 -0.27321082 -0.9577704 1.8649883 -0.6196301 0.5183903 0.49534965 0.655168 -2.7714415 -0.33848628 -0.9960699 -0.5664575 -1.6214997 
-0.4290477 -1.277967 0.7888165 0.2063617 0.6141017 0.41382384 0.33845624 -0.14661427 -1.915148 0.2304336 -0.55123633 -2.9379997 0.6678639 -0.66708463 -0.16837896 0.72337455 -1.1648588 -1.9555776 -2.8497543 -0.8476662 0.30057228 0.16463387 -0.77672875 -0.79468983 -0.08089804 -0.17125879 -1.460263 -1.0881823 0.5233954 -1.5016035 -0.7378793 -1.728923 0.063519135 -1.090647 -1.1244426 -1.476899 -1.184808 -1.3204439 -0.95547 1.6549044 -1.0711516 -1.1193341 0.7066182 2.008786 -2.3084238 0.23252815 -1.6440811 -0.6940802 -2.1644995 -1.5222751 1.1638931 -0.8285542 1.5644022 -0.7417275 0.8833052 -2.8263664 -2.1758418 -1.1328604 -0.7641567 1.9665263 -1.5113723 0.14044857 -1.281787 -0.27105916 0.70453185 -1.2739804 0.50484794 -1.522622 -2.883779 -0.14746381 -1.828811 0.7411314 -2.131493 -0.54794335 -0.3971318 -2.461012 -1.3039346 -2.107432 -0.0067338157 -2.6474125 1.1523267 -0.26340175 2.0844967 -2.196602 -0.83797336 -0.65269053 0.6729459 -0.3787229 -2.162479 -0.20095061 -0.5098184 0.30141115 -0.82720035 2.6801984 0.46239004 -0.6634374 -0.8924216 -1.1151378 -2.3651202 0.6830282 -1.719773 -0.46436048 1.4566625 -1.2308625 
-0.52937096 -0.3228359 1.2209191 -2.028533 -2.908168 -1.7755142 1.5964403 -0.8383781 -0.1520229 0.72248524 -2.702101 -1.1085457 0.23412712 0.54395366 -0.79754895 -0.6894275 -1.0725386 -1.6340859 -2.052618 0.16743694 0.6574393 2.5089042 -0.79957 -0.62773126 1.0605009 0.7603666 2.8286889 -2.2916853 0.95034343 0.10796437 -2.5711954 -0.35888538 -0.9882488 -0.9144027 0.26506987 -2.006688 -1.5916582 0.25267968 -0.116626166 0.41140524 -1.8783921 -0.010521789 -2.150187 0.6951701 0.20283529 -1.931003 -3.1941466 -2.3212323 -0.585896 -1.0861391 0.22961615 -1.7516845 -0.4466874 -0.42096165 0.43113005 1.7653838 2.0113535 -3.0398953 -1.0082058 0.029063465 0.17465173 -0.93452305 -0.37626138 1.743755 0.5087158 -1.0296441 -0.46940804 -0.9601725 0.12913713 0.8179218 -1.9806201 0.20205738 0.21483204 1.4847859 1.3164281 -1.6347471 -1.1458513 -1.3107227 -0.53213555 -2.5251715 -0.41147286 -2.3723154 -0.9443934 -2.152758 -0.017494315 -0.6327017 -0.4380929 -0.34130013 -1.0614548 0.121405795 0.54262525 -2.4202714 -1.1836538 -1.3377534 -0.031009402 -0.07446529 -0.21433638 -2.7062576 0.37378561 -1.0770563 0.44923836 -0.79387236 -0.28042388 -1.3527598 
-0.28596252 1.214535 -1.1073682 -2.53872 -0.6164784 -1.0209457 0.49443638 -1.926566 0.35593817 -1.6739548 -1.3429066 -0.18275759 -0.7883339 -2.407336 -0.11602492 1.1903831 -0.642599 0.012444875 -1.2256486 -1.2576493 -1.5665021 0.5067957 0.36358827 -0.2192688 -0.82906085 -1.3350056 -3.7823303 -0.19845864 0.51237106 -0.7164157 -1.8663728 -2.239252 -1.3032789 2.7911313 -2.276039 -1.1579546 0.23883557 -1.4237337 0.63092256 -1.5200684 -2.1012492 -1.5560367 -1.9286768 -0.83849716 -1.2620916 -0.6161924 -0.61903393 -0.867437 -1.3263854 -0.051701505 -0.2468655 -1.5366974 -1.0713103 -1.1117326 1.6675359 0.009502133 -1.6989193 -0.77954966 -3.2526386 2.457949 -0.081591986 0.84575003 -0.1232401 -1.2443753 -0.5097181 -2.1193655 -0.08262707 1.6874151 1.0490149 -0.5361874 -1.1085819 0.04819341 -1.8754071 -0.4300511 -0.6561236 0.6965012 -1.649099 -0.91638124 -1.0137962 0.07302817 -0.50816655 -2.8827734 -3.0188844 -2.3558483 -1.6823221 -1.6318455 -0.8538872 -1.2804172 -2.271488 0.9425048 -1.1477783 -0.9306199 -0.97155166 -1.1678579 -0.44336155 -1.0028851 -0.5978257 0.433668 0.022649962 -0.15704507 -0.0054290355 -1.7796004 -0.3027282 1.9306828 
-0.99080557 -0.8369433 -0.8827396 1.225582 -0.6412001 -0.814561 1.884078 -0.5425559 0.620724 0.9479914 -0.68921876 0.7807026 -4.425801 -0.94382596 -0.9123386 0.023954973 0.28739467 1.682001 -1.6074134 -0.94048905 1.1122023 -0.12591444 0.5894771 -2.1704686 -1.6089449 -1.6282808 -1.3959781 0.61260873 0.15024261 -1.2410942 -2.2195148 -1.4083015 2.8651319 -1.467514 1.1954013 -0.9240248 -2.8454273 -1.5176913 0.7091921 -1.7298436 -0.96759945 -0.93599606 1.4118111 -1.3373646 0.87780946 1.4441866 -1.0514281 -0.489823 -0.92592204 0.20427376 0.05003048 -1.6604046 -0.74546623 -1.7707454 -1.033778 -3.852346 -2.1898065 -1.7015737 0.9723592 -0.9762099 1.0977204 -3.2298787 -1.531273 -0.11345444 -3.1887794 -1.2712284 -1.2325354 -1.2309568 -1.549959 0.008244881 -1.369382 -1.2337121 -0.10197418 -0.6051603 -1.1179435 -0.49280897 -2.5734427 1.5971192 -0.9993579 -1.2005452 0.8834688 -3.4997094 -1.5523803 -1.416405 -0.7326511 -1.3460426 -1.9753312 0.90084136 -1.3954562 -1.5038217 -1.8104872 -0.3651567 0.66668874 -2.143279 -1.3834295 -0.79784465 0.70571816 -1.888179 0.3900564 -1.2473685 -0.55395013 -0.44020277 -1.2207395 -1.6342877 
-2.071254 -0.16899404 0.73583686 -1.0181608 -1.9586799 -3.3340914 -0.08716376 -0.25027564 -2.0383976 -0.6014262 0.041207295 -0.3757889 -1.1843779 -1.8160179 -1.2179648 0.83184636 -0.07129992 1.629293 -1.2503144 -1.8336962 0.6363042 -1.4068863 -2.033008 -0.3038661 -3.1764574 -2.7057137 -0.73450166 -0.20434971 -1.12354 0.2830839 -1.2337523 -1.7866484 -1.3474437 -0.76142555 -1.3065339 -1.0347002 -0.5799079 0.2900358 -1.9234225 -2.4664478 -0.43703377 -1.6002985 -1.0831648 0.22811832 2.4267201 -1.0246974 -1.7000337 -3.6237466 -0.5928037 -1.0746605 -0.43178925 -0.16836321 -0.885546 1.1075724 -2.320831 0.3885089 -2.0807452 -0.772153 -2.0066495 0.95137024 -1.2064573 -1.642995 -0.104495406 -1.3699646 1.2811397 -1.6597617 3.1155083 -0.15449052 0.121319324 0.82687086 -0.4417537 -0.6588 0.24777143 -0.2011256 -1.2464724 0.945095 -2.9626532 -0.46787822 0.5049315 -2.0877223 -0.5508231 -0.2576325 -2.1086614 -0.05391226 0.3396605 -1.0062333 0.057815135 -1.9440993 1.2439302 0.14170553 -1.3611875 0.53102136 0.24114318 -3.6061347 -3.5027766 -0.8097837 -0.35497972 -0.13874808 -2.914471 -0.76780015 -2.0412939 -2.2387037 -0.3678718 -0.5442837 
0.62840104 -0.8886284 0.7866949 1.5748876 -1.2929658 -2.070237 -0.90115833 2.331575 0.08466312 -1.3928659 0.67536575 0.23625149 -0.92752635 -0.86014557 -2.478042 1.1624367 -2.0333877 -0.61515623 0.3425179 0.25476003 0.12474685 1.8809588 -0.48402923 2.2529283 -0.21432307 0.99136084 0.5475887 0.011278193 -0.2145502 -0.21210836 -0.6197247 -1.147036 -0.85869455 -0.74296266 -1.8522521 -6.004245 -1.5013982 -1.7395076 0.48712957 -2.4538555 -0.17890066 -0.32928625 0.07768975 -3.2513864 0.3307996 -0.4775901 1.3727487 -2.8471847 -1.6685925 -1.2498605 1.1035345 -0.49716425 -0.29753727 -1.8525443 -0.0429365 -3.0799973 -1.5020413 -1.9238441 0.18501304 -2.8927782 1.965311 -0.73106945 -1.4578978 -2.7445538 1.6704814 -1.8309802 -0.7182647 -0.18384714 1.7602998 -1.6955566 -2.2375002 -2.5237586 -1.0235093 -0.36106443 -1.9462843 -0.36555743 0.51225024 0.5503998 -1.2036304 -0.12818465 0.07861577 -2.9929705 -0.040085737 1.1180053 0.567736 -0.8710064 -1.5897892 -0.7791316 -0.7722164 -1.1934966 0.8146567 -2.4055588 -0.8359937 -1.0537884 -1.1053052 -1.0074902 2.2605236 -0.18496363 -2.835589 0.9851433 -1.6469438 -0.24568284 0.1717511 -1.928692 
-1.246612 -1.8882922 1.7519618 -1.617481 -1.7951473 1.4154468 -1.5326475 1.3626764 -1.2499503 -1.0088638 0.9619598 2.1981332 0.27086145 -1.6404681 -1.2091194 1.8677063 -0.5424797 0.59482074 1.0471789 1.653085 -3.5424478 -0.34678608 -2.6345122 -2.668459 -1.5535333 -2.922791 -2.0648274 -0.61133176 -0.05162004 -0.74215186 -0.44851148 -1.7333943 -1.1312721 -0.69608325 0.59862965 -1.4553401 1.150271 -1.3521824 -1.4997435 -0.35521355 0.9554581 -2.9406726 -1.4256362 -3.2691655 1.6432837 1.1738261 0.46092835 -2.0568721 -2.3840842 1.3169622 -0.9527453 -1.328127 -1.5325954 1.3160497 0.9370665 0.10825627 0.54924303 -1.5773945 -1.5847707 -2.7242649 0.18882553 -0.81101906 -2.102502 -1.4305165 1.1884888 -0.22543277 -1.3728511 -2.019858 0.61485225 0.5852409 -0.03112112 -3.1753702 -3.1920853 -0.545281 -3.9724512 1.4000121 0.51270884 2.6042054 -1.7327749 1.3244246 -0.4262038 -3.4517395 1.7723552 -0.86230737 -1.4749466 -0.53107065 -2.9908009 1.2157687 -1.68795 -1.0950928 -1.4037603 -0.2866636 -2.4808147 -2.1669848 -0.35035056 -0.2980596 -2.9219906 -2.114212 0.49255592 -2.964534 2.7025673 -0.87359935 -1.6910915 -1.951805 
-2.4588675 -1.8449173 0.7481853 -2.3067913 -1.2289432 0.2991234 -1.2748402 0.85430974 1.0666274 -0.7723052 0.94214934 0.30768073 -1.3385991 2.0352728 2.7053142 0.25684026 -0.6942193 -1.6366218 0.90433604 0.22589776 -2.6973968 0.52888775 -1.7244823 -3.031367 -1.4846606 -1.4140972 -2.1699483 -0.64079815 -2.0857403 2.5601437 0.37858987 1.4072922 -1.1610093 -0.78106266 -2.4777834 0.45798108 -0.12996846 -1.4221323 0.07219955 -0.13782078 0.56297976 -0.76877534 -1.7403886 0.50777036 0.7668441 2.2334497 -0.038012784 -2.3996036 0.52095866 -0.62988967 -0.77651745 0.22812088 -1.1272751 -0.813441 1.6373482 -1.9794989 0.11247045 -1.6990974 0.0036179593 -1.4174964 -0.83675104 -1.2582874 -2.55281 -0.14968885 -1.7893132 -0.8318063 -1.3847183 -0.7985863 0.47296417 -1.151343 0.73120874 -0.3684027 -0.22519712 1.5623575 0.70944 -1.5860059 0.14916883 -2.0520258 -1.7924807 -1.3672085 -1.0096496 -1.183822 -0.011417231 -0.19806808 1.1973155 -1.1817937 0.052687574 -1.1873454 -0.48518044 -1.262926 -0.40118235 -0.13918798 -0.17984225 -0.44939637 -1.8453419 2.5137885 -0.9404665 0.5838393 -1.0099505 1.4165951 -2.4885886 -1.3502872 1.6809186 0.17560323 
-1.0819173 -0.6491877 0.08439701 -0.5603465 0.88128054 -1.9451373 -0.6754569 -1.7374206 -0.9450292 -0.80742866 1.4583429 -0.834767 -3.5286567 -2.5308836 -0.14038594 -1.5557469 -2.4996684 -0.8974091 0.80038923 0.35989046 -2.471766 1.8239671 0.04546543 -2.5216606 0.66922486 0.5372961 -1.1942474 1.73463 0.91303074 -1.9666837 0.33650106 -0.9953348 -0.72045267 -1.8751123 -1.1339431 2.3419883 -1.2153445 1.0291867 -2.1609607 -1.2389814 1.2107505 -3.1501012 -2.9554794 -2.505024 -0.5190028 0.24622302 1.9281514 -1.5180643 -0.574214 0.8767308 -1.8989574 -0.22621313 -1.2367351 -0.18848054 -0.27626428 0.1131468 -1.1301765 -0.00819313 0.21922313 -2.7692199 -2.009987 -2.3354254 -1.9198148 0.5772825 -0.25268 -1.0894102 -0.843008 0.36349186 -0.49541718 0.21722555 1.556801 -1.1681937 -0.17585176 -0.051775996 -0.5452364 -1.5404619 -0.6892606 -2.5213273 2.6478686 -0.101775095 -2.2587218 -1.9202874 1.2996528 0.6794545 -0.16667654 -1.3081534 -0.7247982 -0.7762679 -0.151208 -1.129213 -0.4269245 -1.3995781 -4.0174694 -0.7112921 -0.6914093 2.356982 0.1871794 0.13156131 -1.452608 2.2543113 -0.27713835 0.0022307592 -2.541346 -1.989705 
-2.3962393 -0.96720225 -1.0991664 -1.2193819 1.3549925 -1.3544453 -0.96392065 -2.0598104 -1.2316906 -0.8722023 1.382025 -2.3600378 1.9729488 -1.1772285 -0.83141184 -0.25677696 -1.2953728 -1.238615 -0.54277486 0.10152722 -2.0442352 0.7120886 -0.016634228 1.1454431 -1.7239984 -0.6847523 0.7094474 1.8037982 -1.0728946 -0.24983808 1.128509 0.14668402 -1.1601877 0.79810166 -0.3208791 -1.0167414 -1.3981167 -0.9937608 0.7882753 1.6598543 1.7464417 -2.3038998 2.116056 0.13461342 -1.176903 -0.7108763 1.1837293 -1.6014521 -1.2547584 0.5329451 0.6370362 2.533544 -1.529866 -0.76754767 -3.1230607 -4.151562 -1.634106 -1.3434074 0.33821946 -0.5928161 1.2308939 -1.8189214 -0.2500645 -1.4765439 -0.059280954 -0.07705004 -0.7567293 -2.275915 -0.12582983 -1.7239739 -1.2589788 -0.936909 -3.9513218 -2.4908671 0.488333 -3.0584466 -0.72035754 -1.4490352 -0.71045166 0.21516165 -1.3242197 0.68592405 -0.884621 -0.43722445 -1.287578 -0.70723754 -0.3490214 -1.4418873 0.42654777 -1.5045016 0.15688206 1.0789149 0.53652 -0.2693024 -2.4275937 3.7901578 -0.13778642 -1.9685268 -2.3078787 -1.561234 -0.34779444 -2.735176 -0.43120757 -2.1807263 
0.33270708 -1.2356005 -0.20353803 0.54245126 -0.21739304 -2.1533723 -0.9886574 -0.81502587 0.25781146 -1.4871703 -1.7752218 1.3961979 -2.3290706 -2.402405 -1.9093502 -1.6594765 2.3596613 -0.8500221 -0.72706455 0.75014144 -0.14288029 -1.5130007 1.9167403 -1.2473459 -2.616936 -0.08524985 -0.3630086 -1.0128171 -0.36379668 -1.3177694 -1.2051432 0.10239373 -0.9752193 -1.27752 -0.45243302 -0.8899506 2.4664497 -1.6100609 -2.93734 -1.9686812 -0.47106546 -1.0901576 -0.7431265 -2.8956249 -2.1478875 -2.0606089 -1.8154111 0.90114045 1.2059704 -0.23896588 -1.3644285 -0.39260712 -0.39056855 0.41657352 -0.38230067 -2.8855793 -2.4910843 2.311653 -1.0234208 1.5473467 -0.43201092 -0.20551465 0.7977992 -2.2475011 -0.5310607 0.7014365 -0.566375 -0.11708777 -0.95606554 0.8162529 -2.0892262 1.2022558 -0.08822806 1.8721764 1.1809353 -0.61091423 -0.7723883 -0.19270468 -0.37349987 -1.4661744 -1.0349979 1.665647 -1.0153205 0.6510562 -1.2598213 -1.0615127 1.9756087 -0.72302854 0.25318843 0.538939 -0.8044906 0.7263483 -0.8102547 -1.6796157 -0.075989835 -0.5804797 1.7890532 -1.8795106 0.2404579 -0.9507066 -0.37568098 1.7227519 -2.4961812 -0.5506695 
0.21385394 -0.5138458 -1.8537507 0.23357905 -0.03131254 0.028378993 -1.5410777 -1.8851409 -0.2755203 -0.7837149 -1.2670599 -1.7803581 -0.675717 -1.3990971 -0.818859 -2.5797272 -0.9130416 0.3119918 -0.5665757 -1.4776335 -2.3784654 -2.1883526 2.0588078 -1.317324 -0.9523395 0.32299036 1.1111344 -1.1548122 -1.3532952 -0.716637 -0.8845496 -1.3392268 -0.49892607 -0.40144008 0.16162148 -1.14291 0.12071475 0.42881417 -1.1838732 -0.68540126 0.6904134 -0.6441225 1.3170227 0.9293295 -0.54643756 -1.3220354 -0.99850434 -0.011228337 -1.7444017 -2.15332 1.5104665 -0.52991486 -0.37796858 -1.0954314 -0.43020687 1.2703547 -0.58081317 0.37559453 -3.1573894 -0.91202384 -2.6480236 -1.0674516 0.85425824 -2.4415948 0.8368811 -0.872068 -0.5863719 -0.40769053 -1.6259464 -1.7997696 -0.27810147 1.897414 -0.24545167 1.9861917 1.4712769 -0.60311633 -0.8443901 -1.8518407 -0.48746663 -0.92274404 -0.37830347 1.0219345 -0.5996549 -0.23686303 -1.8984389 2.910439 -3.4608204 -0.6519903 -1.0019064 0.02574803 -0.5760835 1.2955369 -0.8723208 -1.1791191 1.7569784 -1.3831832 1.3019032 -1.603511 -0.5199843 -0.54291797 0.030742198 -1.1638043 -1.0013944 -1.2255527 
0.72976 -1.006401 -1.5363672 0.15343516 -0.0971717 -0.030515537 0.006093972 -1.1473631 -1.0208395 -0.43286252 -2.3766885 -0.61577606 -0.21351635 -1.619283 -1.0230713 -2.5554645 -1.1432703 -2.3911808 -2.870941 0.13690098 -0.9349859 -0.77770317 -0.5512677 0.28491923 -2.0746834 -0.22232512 -0.85453486 -2.7589931 -2.2079742 -1.2051008 -1.5225114 -0.10702804 0.248555 -0.9146667 -1.3751057 -0.2667004 -0.9420657 -3.3846872 -0.54124486 1.559687 -0.70370525 0.17247441 -1.30512 0.21318702 -1.2761443 -1.17256 -1.3135768 -3.21667 1.424106 -0.4090186 2.5143168 -0.76796055 -0.63289213 -0.508349 -1.7794136 -0.24224152 -0.01390111 -1.0563796 -0.2932161 0.80381334 -2.229101 1.7609156 1.8622959 0.35961083 -0.1255503 -0.8651764 -1.2186569 -0.2043541 -1.5138148 -2.8978417 -0.49649057 -0.11528824 -1.5293673 -0.13816369 0.17381296 0.18793824 -2.5274665 -1.8446097 -0.43738598 1.4856281 -2.2489507 0.59302306 -0.99784714 -1.920627 -0.035230227 -0.39006475 -2.5677214 1.9008828 -1.0558413 0.33573756 -0.8994495 -1.8749648 -0.81170624 -1.8657134 0.7810938 -1.1278913 -1.3761216 2.149512 1.2196053 -0.9251556 0.08591762 1.7090317 1.142342 -0.15016496 
0.122944996 -1.3444175 -1.1536157 0.54905456 0.90320855 -0.5008288 0.24767901 -2.4672832 -1.487801 -0.9650553 -1.9120512 -0.8527397 0.1744617 -0.69140756 -1.6653827 -1.3104361 -2.3131385 0.62772447 0.91670233 -1.8825 -0.69772786 -3.2723668 0.090040475 -2.486368 -1.2946723 0.19674502 1.0781155 -0.6280775 -0.20860034 -0.44484335 -2.1754565 0.7806501 -0.76408225 -1.0397112 -0.13055012 -0.18031195 -1.094949 -0.43926126 -2.5846395 0.7451588 -0.1818481 -2.2052927 -1.2201221 0.4326982 -0.98703724 -0.9491479 -2.9799955 2.289359 -3.01842 -0.038813945 0.95336705 0.035881445 -0.73250276 -3.2456546 1.7923517 -2.3023791 0.68314016 -0.8897649 1.7537817 -0.44037452 -2.937897 1.1128944 0.92035294 -0.5525484 0.19277896 -1.8031268 -0.62714493 0.6020076 -1.7946999 -0.42652714 -1.2673749 1.2228 -0.13365427 0.24430695 0.25272387 -2.0128505 -3.7457604 -0.5994649 -1.103508 -1.7787799 -0.59158194 -0.36286715 1.7410228 -1.2676427 0.19116516 -0.96578306 -1.2997118 -0.15746276 -0.7790212 0.8535349 -0.09164878 -2.5108368 -1.0442847 2.318598 1.1925756 -0.88382936 -1.5115536 -1.2297808 1.0913017 -1.0723913 -0.83248246 -0.5755603 -2.212098 -0.83423585 
-0.019928377 -0.59493095 -0.6616842 -1.3369567 -1.4308795 -3.03826 1.6815306 -2.6847754 -2.54104 -1.1156131 -0.1472158 -0.31294665 -1.9161499 0.2756824 -1.1512698 -0.12932633 0.26496083 -0.72956336 1.5088696 -0.2127769 0.78893185 1.1011943 0.12289434 -1.1320404 -1.0074456 -0.6190206 2.3765376 -0.7783172 -1.9327424 -0.9214811 -2.548481 -1.4636874 -0.3110047 -2.325446 -1.6206247 -0.8681306 -0.11249504 -2.2293346 -0.7764946 0.42861676 -2.4700966 1.7635527 -2.7400079 0.1435545 -2.1156285 -1.3865461 -0.38334006 -2.2087274 -1.4250422 -1.5035659 -2.2477796 -0.25108573 0.017726032 0.36760896 -1.2386525 1.7722449 -0.5499809 -2.714755 -2.5710905 -0.62948513 1.0276324 -0.40834153 0.633287 -3.002149 -3.2556567 -2.0677328 -1.2873471 0.42059228 0.25894576 -0.7964717 -0.9645929 1.5638748 2.8657107 -0.6520536 -1.7924032 -0.18823893 -0.5571002 -2.3023062 -0.122078955 -0.9204234 -1.8277403 -0.031016756 -1.6244291 -1.8194858 -2.1284957 -0.7635163 1.7930585 -1.7260535 1.2309651 -0.07486029 -1.6189948 -3.0759408 -1.1847861 -0.7617343 -0.26575464 -0.3710677 -0.50061685 -1.7290244 -0.0011180148 -1.2376647 -0.55616075 -0.78990084 -1.2038996 -2.8491545 
1.7751892 0.019734045 -0.28473172 -3.3933926 -2.3264716 0.6195341 -0.7190915 -0.28659275 0.39342013 -0.7613404 -2.458804 1.688219 1.750768 -2.848843 0.94486976 -0.67773217 0.9044436 0.3100803 -3.7566206 -0.022921637 -1.2940522 -2.4254658 -2.7979012 -0.53252995 0.22420532 -2.1237597 -0.1931532 0.29729262 2.4531744 -1.1945847 -1.0934863 -1.7837933 -2.3175182 2.924001 -2.0762317 -0.38635248 -0.34078366 -1.446684 -0.5036246 0.54220426 0.17834547 -0.24866515 -0.2797523 0.98473483 -0.6499015 -0.32168308 -0.6638792 1.2504109 -2.7130277 -0.76560503 0.58646476 -0.4578242 -0.75280786 -1.0175977 0.7853766 0.45119482 0.19403018 -2.0046372 -0.0026313323 1.5488288 -0.81727076 -0.93834263 -1.3706737 0.5094467 0.015769824 -0.66397583 -0.08473356 0.5376915 -0.46005562 -0.7496653 -0.58303803 -0.07029833 -0.3830628 -1.5807917 1.0680438 -2.486702 0.14656505 -2.9333513 -0.20430177 -0.99614835 -0.4765627 -3.683725 -0.20886938 -0.68179584 1.2315043 -0.7752573 -1.0332774 -1.7544861 -1.2037473 -0.7037201 -1.1417305 -0.51507133 -0.49599048 -0.9613807 -0.99040544 -0.25214073 -0.040406622 0.5373095 -0.41871923 -1.7226297 -1.7323179 0.012876199 -0.83324105 -0.118481636 
0.28986704 -0.67570424 -2.6572583 -0.02150453 -0.94301444 1.3291494 1.1828218 -2.2687557 -2.435974 -0.9839911 -0.5771858 -0.9414187 -1.3164078 -1.7105552 0.16041332 -2.0222285 -0.5466821 0.3048203 -0.9743876 -1.8053384 1.1647152 -1.4918401 1.5546163 -0.8100752 1.5514951 -1.8282443 -1.179704 -0.8922525 0.7919774 -0.69717157 -0.829939 -0.96256113 2.8164728 -1.0929505 -1.4476767 -0.38166934 0.33289468 0.16781631 -2.8113127 -1.510265 -0.78661406 0.14196621 1.2571316 1.5699064 0.04270394 -2.7580013 1.736075 -0.010111873 -1.7716846 -3.8279538 0.60383064 -0.6644077 -1.4029305 -0.9185227 -1.7841108 -1.6981053 -0.4960785 -0.84673995 -2.9625213 -1.4838885 1.6791185 -2.0607777 -0.69592816 0.025015583 -0.53146607 -0.18218632 0.01688395 -1.0500876 -0.53783095 -1.3536696 -0.52780783 -0.22615203 1.0111134 -0.87887126 -3.1743388 1.9025056 0.5734733 -0.148202 -1.3403885 -1.5014352 2.5261211 -3.0603902 -1.4088603 -0.7453719 -0.3173526 -1.8713937 -2.0097132 -0.5059419 0.049311254 -0.67047256 -0.6351881 -1.9270152 0.5865963 -1.1924523 -3.2101185 0.05395067 -0.5484275 0.008939007 -1.7095981 -0.6061949 -1.2630869 -3.5688794 -0.7114927 -1.6365715 
-0.6910673 -0.49804676 -2.1132543 0.07940722 -0.20471264 -1.0886259 -2.50378 -2.134519 1.5114468 -0.7055347 0.25823048 0.5505507 -1.8985237 0.008042572 -0.73550236 -1.988924 0.16486843 1.7537724 -1.676452 -0.61736 1.7648066 -2.5382588 -2.6821492 0.04631829 -2.2628543 -0.9298756 -0.62384224 1.2146777 -0.74709076 -0.81921947 -0.35376927 -2.5238838 -1.2092247 -1.5737394 -1.1415364 -0.4754582 0.23385473 -0.034051783 1.101026 -1.3306872 -1.4043993 -0.12350757 1.6478028 -0.5430796 1.7914273 -0.6950509 0.108262785 -1.8911694 0.0597474 -0.9736028 -0.18796952 -1.720025 -0.95241576 0.26323187 -1.7128766 -0.3507127 0.63165987 -1.1611657 -2.293312 0.438125 -0.85232145 -1.583824 0.8039467 -0.12082907 -1.2226264 -0.21078199 2.8813446 -1.2014561 -0.024366803 -3.415882 -1.0428172 -0.72943026 -0.77419317 -2.2624283 -0.3005536 0.7209096 -1.1360705 -1.2814542 -0.21578744 -0.539755 -1.7829976 -2.1040592 -1.5820729 -0.8153455 -1.8891816 -0.8476615 -0.38811734 -1.0059123 0.15761022 -0.98378474 0.80105674 0.15709329 -1.0930912 -2.0472836 -0.39398265 -0.16539282 -2.4059184 -1.0689616 -0.50016826 -1.2316015 -2.9908473 1.0494683 0.010237761 -0.41417336 
-2.0916123 -1.8863486 1.4299124 1.220102 0.75244933 -0.29151493 -0.5881573 2.2838392 0.065987065 -0.9994576 -1.4813867 -0.0152897155 -1.3666192 1.2877407 0.41408783 0.08284767 0.43540332 0.84594774 0.14764407 -0.53166413 0.49894136 -2.3643157 -0.21075891 1.3254131 -0.67597866 -1.7816191 0.3622438 -0.8678337 -1.9363207 -1.9245584 -1.6311984 1.6731465 -2.4979641 -1.6927607 -1.5016166 -0.04348056 -1.5373949 -0.5055186 0.23458005 -1.775721 0.76473606 0.5624999 -0.49102247 -1.2420088 0.16533786 -0.9052224 1.1380357 -0.5211345 -2.4082677 -0.91500914 0.438276 -0.8461502 0.35464224 3.02804 0.4665422 -0.6654746 -1.3809823 -1.1526028 0.6738598 -1.076707 2.7628248 -1.8821139 -0.2909731 -0.18844594 -2.0679991 -2.3322027 -0.0690018 -0.5408095 1.4108744 -0.82532924 -0.18470061 -2.041935 -1.3331361 -0.1340542 -0.9926131 -2.8607113 1.4178591 -1.8867763 -1.217079 -0.102670774 0.6952737 -2.6238482 -0.28717908 -1.4007359 -3.0462644 -0.48301402 -0.21177998 -1.4803064 -1.6316831 -0.7085098 -0.87135637 -2.4586563 -0.09714474 -0.74427456 -0.73226696 -0.764474 -0.050415594 -2.1486652 1.7205944 -0.96615434 -1.32016 -0.47891933 -0.3639693 -2.0414474 
0.14198546 0.061957352 0.32831573 -1.1052215 -2.2481427 2.4998713 -0.9383853 0.9756812 -2.069799 -0.17056416 1.1210731 0.22125119 1.1676779 0.051365092 -0.16844489 1.0612068 -2.4474359 0.86409247 0.2605859 -0.8308141 0.3020069 -2.7867017 0.46724728 -0.93646806 -0.64249104 0.40483418 -2.026211 -1.1371362 -0.19465223 -2.3072634 0.12980396 0.044403426 -2.1849122 -0.9024504 -0.8413613 -0.35912904 -0.77268475 -1.2858887 -1.533509 -1.1747566 1.6615579 -1.9408592 0.1392929 -1.830866 1.5636661 -0.7041295 -1.0040704 1.1353347 0.22311719 2.26421 -4.043256 0.002166504 -0.9455495 -2.4874585 -0.3564444 -0.93461484 0.19467953 -1.0242646 0.86698014 -1.8302467 -2.9044912 -2.7179239 -2.7185698 -0.8921983 0.024680562 -0.78658825 -1.73591 -0.5617653 1.9097764 -0.46327904 -0.88749623 -3.1655812 -0.12289442 -2.2016506 -0.1881138 -1.0399324 -1.7074945 0.5843846 -0.86282593 -0.072085276 -0.51565564 -2.2018585 0.5765455 -1.5487766 3.982078 -1.0038207 -1.4276593 1.4990504 -1.5090377 -0.61381316 1.353021 -0.5658394 -3.3034675 -0.26601273 -0.009485106 -0.61152995 -1.6775728 -2.0640957 0.97885585 -0.3288791 2.9380245 -1.6002419 0.44792247 -1.0356 
-1.6716443 -1.8541757 -0.6018397 -1.027475 1.4734492 -1.3267612 0.1452635 -1.2947273 0.50638086 -0.58460325 1.2987869 -0.44405785 -1.533974 1.16685 2.6152604 -1.6899326 0.77416414 0.99735177 0.5639334 0.34996057 -2.2555006 -0.21131134 -1.9063541 -1.3428661 -2.0608423 -0.84089094 -0.9460306 0.44640034 -1.0146596 2.4203842 -0.93678635 1.1976919 -1.2769417 -1.437441 0.664439 -0.9543832 0.5620161 -1.0050505 -1.1221241 -1.8928875 2.224068 0.43582404 -1.288232 0.751076 0.5946979 -1.1965799 -1.0661151 0.31536257 0.14471447 -0.8440496 0.3605013 -0.9758625 0.3889845 0.27317116 0.81427616 -3.3315706 -0.73761463 -0.7420164 -0.3754781 -1.220167 1.1453052 -2.3172789 -0.92317474 -2.795818 -1.8662195 2.4361672 -1.898859 -1.7926719 -4.2262216 0.38366193 -0.17383043 -2.5338883 -0.82256174 -0.49568415 0.06072997 -0.6449579 0.34742507 -0.24588646 -1.6178341 -0.83354664 -1.1426642 -1.8180538 -3.0171757 -1.4948237 -2.3106244 -1.878727 -0.63508445 -1.3439822 -1.6170543 -1.9518435 1.6326413 -1.063306 -0.23971096 -0.6795653 -0.6210719 1.3671824 -0.271783 -0.729804 -2.4973845 0.5577392 -0.521481 -0.51249903 1.3372363 1.2814691 
-1.913101 0.057584304 -3.6760151 0.93867934 0.84849966 0.24272478 -0.39884964 0.5663176 -2.0045917 -0.5828653 1.4118016 -1.8574412 -0.8909482 -2.5001013 0.44455302 -1.0573645 -0.58487946 0.8655627 0.041060343 0.16064909 -2.3753555 -0.48318693 1.4430565 -0.16620246 -0.8525534 -0.33706808 -0.2881293 -1.1313648 -0.70847917 -1.9985049 -1.3550558 -0.21132918 -1.0197313 -0.35491568 -0.118936 2.5361698 0.9316676 1.6425432 -0.08694507 0.11103779 1.9228476 -1.5592301 0.29396978 -2.2045279 -0.9772025 -0.0033570933 0.08674663 -2.283936 -1.8115864 -1.3268859 -2.9723556 0.3741343 -1.0277424 -0.7319054 0.5824938 -0.064921975 -0.99066746 0.6985705 -1.4396038 -1.1483661 0.22368996 -1.3374348 0.64858323 2.2943218 -0.083081715 -1.6638618 -1.0033648 -2.2805817 0.7563126 -3.4069078 2.2061086 -2.2654629 -0.4796777 -1.1317333 -1.1735882 -2.221501 -1.5803764 0.386855 3.0213926 0.18031065 -2.8569229 -0.75334513 -0.7246194 0.05727274 0.069009505 -0.16903247 -0.58591056 -2.977757 -0.85845834 -0.4583987 -0.60669273 -1.3534117 -1.4578047 -0.5985279 0.45921844 3.4276237 0.7169977 -1.1296693 -1.3941534 0.22068493 -1.0407032 -1.9299645 -1.5940115 0.38899726 
-2.5650878 -0.28441355 -0.34353814 -1.0942205 0.07319228 -0.7660392 -1.5517573 -0.11088475 -1.4610391 -1.335481 2.3105483 -2.295781 1.5100569 -2.5014753 -1.5106738 -1.5434784 -0.8515518 -0.36877522 0.5915042 -0.87472636 -1.8332057 0.16267289 -1.8741443 -2.4310904 -0.47980168 -0.51047283 1.209489 0.7788993 -1.6040374 0.248591 -0.29009023 -2.1293309 -1.5848114 -0.1260261 -0.8937542 -1.2514036 -1.6418196 -0.11881931 0.23697828 0.6974734 2.306406 -2.5283506 0.2720113 -0.6442416 -1.5442041 0.802272 -0.28672108 -0.71366364 -2.6131299 1.8268564 -0.8344038 2.8629487 -0.99347085 -1.5769502 -3.2398283 -1.1329896 0.11850582 0.20666629 0.2037387 -0.4424123 1.5156171 -0.87380147 -0.90184003 -1.3296278 -2.0223453 0.27612564 -0.78921145 -1.5700359 -2.742144 -1.6627705 1.1070956 -1.0270354 -1.6123171 -2.248193 -0.67172587 0.26522765 -2.7202353 -1.4605037 -0.9931518 2.041594 0.27444112 -0.750033 -0.730965 -0.26506314 0.85995305 -1.5421119 -2.3489735 -1.8618765 -0.006094017 -1.953137 -0.27495542 1.5178106 2.486823 -0.5665367 -1.6445795 3.9690704 -3.2653105 -3.3141105 0.29993278 -0.63227105 -0.6554729 -0.96157324 0.5733407 -0.8731262 
2.0752223 0.40231574 -0.91562253 -0.35635537 -0.99494 -0.42781714 -0.67030287 -1.8610716 0.18586104 1.100657 -0.5607926 0.4123408 -2.141865 -0.16474108 -1.0211761 0.33229998 0.79928106 -2.3614073 -1.7202861 0.39756063 -0.83037263 -0.053330768 -0.5727246 -1.7562236 -1.451123 -0.22205861 -0.9865687 0.74299157 -2.8029518 -1.8316084 -0.64802957 0.44252703 -1.3157219 -1.0947725 2.153275 -0.9161649 2.3889644 -2.6246893 -2.0928757 -0.6505612 -1.4380281 -0.47105554 -2.8629162 -2.3262246 -0.60469925 1.1226332 -2.2217793 0.14528531 1.0365442 0.3108751 -0.3508785 0.07723907 -1.0574166 -0.89741105 -0.835979 -1.1421696 -1.0061356 2.53979 0.21151726 -0.4026451 -1.2089198 -0.098619126 -1.6094195 0.30999014 -0.03204213 -1.2976204 -0.7253044 -0.6039307 -1.2734174 -0.6227064 -1.9698216 1.7451304 -0.95506406 -0.036709603 -0.6321925 -0.9313972 -0.95770144 -1.6640265 0.025105903 -0.49987173 0.0015563385 1.7187442 -1.1896089 -0.9249993 0.50790066 -0.8043492 0.63031787 -1.3448744 -0.30441165 -1.953713 -1.2077882 -1.5887369 0.31496313 -0.41883382 -0.27970505 -1.3877323 1.9035496 -0.37068468 -1.0639032 -0.892927 -1.1777767 1.7489008 -2.7094269 0.7972678 
-0.22849207 -0.11367643 -1.6946898 0.43246657 -2.8308644 -0.0945967 -2.1118886 -1.7442732 0.03531453 -0.64541787 -1.9845579 0.57970166 0.10764932 -1.3994197 -0.59794015 -2.3162029 -1.2977915 -0.78189963 0.27029154 -1.7851585 -0.43092126 -1.3225812 -1.6136618 -1.5641204 -0.8014111 0.9624393 -0.97732484 -1.4225136 -1.6077819 0.4241268 -0.7582024 0.08430402 -0.09598292 -0.7640191 -0.018677924 -0.76071566 -1.4331808 -1.1380768 -0.753214 -0.5286346 -1.680938 -0.44813725 -1.2140168 -0.92213714 -1.1425269 -1.711047 -0.14653012 -0.6601828 -2.3253741 -0.3364421 1.8516988 0.7821646 1.50647 -0.57588315 -1.4433 -1.4840639 0.28559294 -1.0672696 -1.8127879 -1.782861 -0.78482264 0.69676125 -1.5634371 -1.5209875 -0.34265447 -0.37585366 -1.4848351 -1.556996 -1.9383192 -2.0038474 -2.4708033 1.0807521 -3.3066447 -1.390837 0.19714315 -1.1323844 -0.3663708 -0.10173921 -0.37120935 -0.117428854 -0.9370917 0.52754784 -2.4929376 0.013687632 -0.8414561 2.9521985 -1.3223674 0.18014215 0.54898864 -0.9747879 -2.7825408 2.3303447 -1.170026 -0.3100312 2.2944791 -1.002509 0.12300788 -0.3909441 1.2167014 0.9254878 -0.8603943 0.2744645 -1.4957831 -1.3353175 
0.7449361 -0.46340457 -1.2491701 -0.81408685 -2.0486636 -2.3531592 -0.17308924 -1.1030555 -1.1617109 0.5069325 -1.1038454 -3.552063 -0.42154118 -1.0695584 -0.8704313 -1.1147876 -1.6253471 -0.59540784 -1.5656625 0.9260174 -0.40828812 0.25659674 -0.6790121 -0.6803804 1.4700143 -1.5736266 -0.58594227 -2.2975924 0.5048957 -1.4370825 2.2612126 -1.7848097 -0.6393336 -0.97657573 0.34722924 -0.49242544 0.5343208 -0.63680345 0.57035214 1.5038935 -0.78139734 0.21419145 -2.2151775 -1.9108783 -2.3120027 -1.2232723 -0.35028717 1.3846222 0.07724131 0.06584434 1.6961206 -0.82583636 0.8154858 0.4141633 -2.3244002 -1.9403181 0.3984247 -1.1354771 -0.14858907 1.306195 -1.6984082 1.4136293 2.1627405 -3.4947023 -0.3035313 -1.0696388 -0.8355416 0.11162338 -1.9748368 0.60802495 -1.361185 0.4227434 1.0615823 -0.08523915 -1.335109 -0.5406166 -1.4470339 -1.7727524 -0.64340264 0.9266589 -2.4026623 -0.08094539 -2.6571813 -0.14790848 -0.5374367 -1.3769146 -0.8341248 2.1978626 -1.0451919 -1.5859175 -2.3595517 -2.1491692 -0.52404606 -1.7733982 0.4885919 -1.1801183 -0.6236882 0.78475577 -1.5125754 1.2209754 -1.3780366 1.4526917 0.71862406 -0.6010395 
0.7885749 -1.7975687 -2.3301196 -1.1427745 1.0794163 -0.930781 -1.5993695 -1.4852058 -2.26993 1.1684678 -1.2707824 -0.45242447 0.64669734 -1.1949139 -2.2063422 -0.8619169 0.271225 -1.2603967 -1.206877 1.2671889 -0.11712569 -0.6025611 -1.2226561 -0.2688838 1.3784099 -0.015904188 -2.4576197 -3.1595452 -2.3737879 -0.5784562 -2.3852105 -1.7626406 -1.4944494 -0.9258165 0.14397939 -2.2384653 -3.128414 -1.148509 -1.3976918 1.2088157 -1.7075884 -1.1055954 -2.3928545 -0.7963809 -0.67413116 -0.19431826 -2.439938 0.45478946 -1.694414 0.9474078 -0.44723427 -1.4473374 -1.0182197 -1.30485 0.24308258 0.78089756 -0.7660792 -0.7981662 -0.18719219 -0.17882036 -0.9348537 1.5429573 0.36395377 -1.9277686 -2.1300793 -0.90137327 -1.2006044 0.4778197 -1.5814106 -0.96753824 -1.3092403 0.18674271 -1.7312208 0.9167967 0.2179534 1.3509147 -1.0364152 -0.69012195 -1.2881161 -1.4517133 0.84095895 -0.49742696 2.1444802 0.1733933 -0.65830886 -1.0397959 1.092967 -0.933977 -0.55657876 -1.079442 -1.0503601 -0.82072455 -1.8132076 2.5427122 0.2706779 -0.6970765 -1.413352 -2.9700754 -1.6325954 -0.55374986 -0.23057596 0.25317726 -0.6716775 0.31029004 
0.13816027 0.02959325 -2.6490316 -0.88850945 -0.6058825 -1.5230839 1.5824459 -3.7941613 -0.5479066 -0.38028067 -1.7589065 -0.5602351 -0.17626803 1.8117495 -0.7370362 0.2548916 -1.8783748 -0.43832 1.3851881 0.5578169 0.74995404 1.548492 0.08840771 0.8442529 -0.10511462 0.95589805 1.8103286 -0.702116 0.23647292 0.5472958 -0.5293004 -0.8594203 -0.2838422 -2.1742516 1.2734061 -0.8724595 -2.5943625 0.47227743 -2.975629 0.87319386 -2.2447503 0.8015563 -1.2388797 0.73437756 -2.179457 0.3955219 -2.8245802 -0.7898339 -1.7884214 -0.82735324 -0.99458 -0.19332665 -1.1720467 -0.871688 -0.29655844 1.6526283 0.16279614 -0.45514265 -0.04954391 -0.27078784 -0.42843986 -0.46159604 -1.73815 0.95932466 -1.0587234 -0.7220062 -0.5198194 -1.13612 0.8888621 -3.0663831 -1.3262918 -0.043226704 0.29096037 -3.7009046 -2.1817307 -0.08605566 -0.016480284 -0.19837974 -0.7417952 -0.98177487 -3.0724328 -0.03912524 -1.2836746 0.93262833 -2.088717 -1.2932751 1.1089299 -2.7113748 1.5163093 -1.9356351 -0.72349143 -1.1203108 0.628404 -1.5177091 -0.5354465 0.0047531473 -1.3388853 -3.067559 0.22567809 -1.2930762 -0.3976924 1.9057966 1.2607335 -1.3644543 
-0.98710304 1.3587024 0.69613314 -1.2330613 -0.7155351 -0.15667161 0.51056516 -0.665867 1.7844832 -1.2303979 -0.46606445 -1.5288458 0.11787733 -1.3290409 -0.8819795 -2.9992042 -2.2451177 -1.3347316 0.27562305 -2.097173 -3.6558414 -0.3264149 -0.77609926 -0.43097764 1.2486228 -2.2542226 -2.6820567 -0.16803893 -1.0864718 -2.2533545 -1.8763663 0.39948818 -0.6161722 2.7979438 -0.42775652 -1.1856394 -0.33000144 -1.260123 0.19592047 -0.07690404 0.33394784 0.8882951 0.90282136 -1.8488628 -0.52579343 -1.6952139 -1.4042835 -1.4557889 -2.2714093 0.09377434 -1.1868306 -1.9135842 -1.476921 -1.6631981 0.35599026 -0.32741508 -0.26019883 -2.5155334 0.8279824 -0.077201836 -1.5977505 -1.2829324 -1.9017918 -0.34785417 -3.137726 0.4045426 -1.2130445 3.257576 -1.1466461 -2.08897 -0.4363594 1.7799639 -1.4919244 -0.8130841 0.28034592 -0.9896534 0.14068843 0.10553862 -1.2396889 -1.7754017 1.5142337 -0.85683227 -1.4103706 -0.12785098 0.54420316 -0.1870952 -0.3959374 -0.5233834 0.6725303 -0.89827186 -2.1165466 -2.8972077 -2.9124267 -1.2808584 0.036672283 -0.98908865 0.6051337 -1.2729104 -0.3372344 -1.3173056 -1.5422212 0.570479 -2.5237567 0.19382149 
-1.8109664 -1.1063049 -1.3698721 -0.51629543 -1.2426338 -0.2511236 1.4185661 -0.011419744 -0.66261387 1.2536525 0.42957914 1.1640992 -1.5728511 -0.11366558 -0.81349677 0.08251562 0.30408487 -0.8828266 -3.2633011 1.2946483 1.641481 -2.547729 0.21908662 -1.7353163 -2.160834 -0.39007968 -2.9654987 -1.365037 2.186895 -0.822368 -1.1952742 1.1199903 2.7960515 -1.6002147 -0.4084207 -0.85629225 -0.80102706 -1.3040566 -1.8452408 -0.14283942 -0.30947098 -2.1109493 1.3630254 0.44648147 1.122667 -0.36941823 -0.6527811 -0.5423697 -2.7945628 -1.6022371 -0.2604938 -0.96790886 1.6461278 -0.39258206 -0.9861762 -1.59438 2.015601 -0.121279664 0.69080263 -0.727622 1.1490338 0.34215012 -0.94430184 0.4499768 -3.4534652 0.7711917 -1.0336324 -1.5293883 -0.8738957 0.19455013 -3.2557292 -0.4104753 -0.9017208 -0.37892556 -0.8076784 -0.6300844 0.5612686 -0.34391397 -2.0437427 -1.3683203 -1.6826159 -1.1703017 -1.4343649 -1.183121 -0.59668815 -1.6748565 -1.2505718 1.0086069 -1.2019602 -3.5003772 -1.8483454 1.4018593 1.4495764 -1.0311772 -0.41857123 -0.5088192 -0.091177665 1.1919624 -0.5875282 -2.257618 -0.6941017 0.5030913 -1.6056117 -1.5322216 
-0.62461466 -1.4598646 -1.7350664 0.0010951599 -2.2397408 -0.64005405 0.11741686 -0.31366238 0.6826771 -0.85383815 0.16577336 -1.4874493 -2.074643 0.50412166 -0.8299502 -2.1891222 0.11669394 1.9852287 -0.18863788 -0.94044083 1.9766035 -2.6135926 -3.4751768 -0.4187305 -0.9485495 -0.14736706 -1.5864887 1.1758002 -0.4628953 -2.3410692 -2.5398705 -0.44385552 -1.8499819 -1.9054035 0.1139186 -0.9283957 -2.2954602 -2.5035222 0.982879 -0.79061186 -0.64946175 0.4109947 -1.312374 -2.346394 1.2667906 -1.0493013 -0.7141706 -0.9290593 0.32547727 -1.0951188 0.23706605 -0.5984714 -0.96672434 -1.3779863 -2.3330216 1.2289498 0.6497714 -1.4761139 -2.068835 0.064455844 -2.4719634 -0.45825 -1.8425487 -1.3403518 -0.16719292 -0.64501727 2.8589077 -2.422255 1.3620708 -1.1569515 -1.039621 -0.011383158 1.4059159 -1.7101091 1.4448359 -0.3187145 -1.5165468 -0.7084148 -0.20681143 -0.17080916 -0.24158275 -1.0618237 -0.86805886 0.68848187 0.86425185 -1.2232246 -1.8893038 -2.3615417 -0.2018535 -0.8773653 0.55178267 -0.14379469 0.26057035 -0.746189 -1.3713646 -0.8064658 -0.95413285 -0.31457078 -2.5762074 -1.2134019 0.07104906 -1.4664124 0.51882803 -3.0205548 
-1.2640603 0.92990065 -0.993311 2.760145 0.43418583 -1.243432 -1.112251 2.385806 0.42616728 -1.0874922 -0.09584381 0.5201774 -0.13351248 -0.41080442 -1.7064294 0.2730196 0.5488175 -0.008275568 0.38078928 -2.014153 1.4036934 -1.3057234 -1.013006 1.5227087 -1.6650708 -0.745255 -0.2761172 -0.43144935 -1.2481396 -1.3810291 -0.11884997 -0.65894645 -1.9671028 -0.75930727 -1.8482764 -0.31393662 -1.1540097 -0.9970326 0.3382138 -3.31781 0.67133355 -0.25130367 -1.5060552 -0.9858779 0.2335256 0.4171819 -0.35467532 -1.9363092 -0.73614633 -2.275911 -2.2412207 -2.3070474 -1.1190873 -0.30856824 0.07827914 -1.360445 -3.026316 -1.6605543 1.5068748 -2.0157692 2.1505837 -3.195398 0.36083087 -1.7485267 1.1135911 -0.91241777 -2.917217 -0.85643 1.4428502 -1.1925006 -0.2004891 -0.36500946 -2.060756 -0.62906975 -1.3595952 -1.8534683 0.36151847 -2.9545162 -1.426168 0.18737485 0.75163746 -0.4897048 -1.1210847 -2.62441 -1.3328277 -0.30569947 -1.1263709 -3.0059326 -0.661179 0.109126724 0.67881733 0.48372826 0.9553664 -0.9213059 -2.1278257 -2.029876 -0.31307912 -1.8620921 0.46115723 -0.40934727 -2.1921194 -0.48029256 -2.5486796 -2.6679175 
0.10231076 0.0685567 0.54854554 -0.7998339 -2.0353284 1.8818558 -0.52843887 -0.9447824 -1.80304 -0.22075865 0.13737549 -0.10480528 -2.9167845 -0.99549985 -2.5683148 2.2788134 -0.31466264 -0.3398285 -2.0944521 -0.40289143 -1.320012 -2.7220407 2.0417557 -2.228918 -1.3237461 -0.85165465 -0.52431273 -0.76341975 0.87051994 -0.44770557 -0.4230426 -0.4617723 -1.5867034 -1.088421 -1.6929861 -1.2376062 -0.49995643 -1.1561114 -1.1721739 -0.41501394 1.0477961 0.64376974 -0.6040404 -0.18498902 2.022651 -0.36948863 0.05581913 -0.7453717 -0.022447014 2.761495 -2.9722965 -0.99196047 -0.9235691 1.283211 -0.027706938 0.65108705 1.0151601 -0.9001538 0.32498312 -0.85590297 -0.6708082 -0.95500004 -0.6508355 -1.5684669 0.7437745 -0.628773 -2.046268 -1.2763994 0.77332807 0.37488776 -1.4180982 -2.0213645 -3.0110586 -1.9221913 1.7208657 -3.0165975 0.25066355 -0.46285495 0.034773115 -0.0048723267 -1.9336259 -1.0775989 -1.159703 -1.3092339 -2.807157 -0.9199213 -1.6804348 -0.88557833 -0.2760709 1.3043604 1.9426482 -0.17275447 -1.6727704 -0.19763716 -1.4123553 1.1378864 -0.9945678 -2.3427267 -2.003996 -0.09359839 2.5216305 -1.5402352 -0.34665623 0.119301446 
-1.0615656 -1.5751185 1.3112948 -0.7686472 1.048091 -2.1950786 -2.4142308 0.8596212 -0.85740495 0.21301317 0.9525463 1.353275 1.0134099 2.692012 1.0446093 -2.448667 -0.45377454 -0.27056268 1.1521076 -2.153975 -1.3270373 -1.1718326 -3.4240944 -0.24789494 -0.42408884 -1.9497398 -2.6641107 0.44848365 -0.74659455 2.1808474 -0.24320234 -1.2213348 -0.34405503 -0.8073654 -0.333933 -1.1949792 -0.76344454 0.17824683 -1.7823336 -0.47033432 -0.29721758 -2.6122165 -1.5189583 -0.3281144 -0.028387416 0.2677898 -2.6985781 -1.4161879 0.40158525 -1.5977112 0.17392486 -1.5030258 -0.19781986 -1.9115268 0.042771876 -4.1216307 -0.18018582 -1.7717571 -0.31010032 -1.2875845 0.21324486 -0.18303493 0.004401592 -0.36352524 -2.2240427 2.712271 -1.2242551 0.10652438 1.2667836 0.47959012 -0.4339302 -2.0436122 -1.7565691 0.16126654 0.3761659 2.0007372 -0.33766967 1.5523487 -0.663248 -1.0935447 -1.4974734 -1.4168601 0.43930936 -0.036748525 0.28175873 -1.3617668 -2.2282987 0.4344026 -1.5250086 0.6294032 -0.5775664 -1.2918552 -0.5953262 -0.006445452 -0.5850069 2.1818633 1.0772784 -1.5183663 -3.0477586 -0.46369317 -1.0049914 -1.7395562 -2.6903508 1.9651769 
-1.882776 -2.3932076 -1.5522879 0.023367334 1.0623925 -2.405841 -0.89116025 -0.68041337 0.014583173 -0.71492827 2.4795642 -0.8433245 -1.0088574 -1.4163543 -1.0016809 -0.99906224 0.28259024 -0.010763099 2.0970657 -0.74172664 -0.7415319 -1.2960453 -1.4049864 -2.0637298 0.12015956 -0.32334328 -0.67421824 -1.6671121 -0.34480727 -2.6007183 -1.6637144 -0.69386464 -1.287023 -0.85372907 -3.3231063 2.9884062 -1.8433045 -0.42413777 -0.23075543 -1.3438 0.14283147 -0.59380496 0.113687396 0.10673679 -0.81618387 0.73352635 1.479978 -1.4705198 0.7201033 0.39310992 -2.600925 -0.25948066 -0.44620016 0.40468273 -1.9824107 -1.4069401 0.2226877 0.5891485 -1.6407956 -1.3313863 -0.6189511 -0.6551948 -0.38058287 -0.74508154 0.32367474 -0.14726032 -1.0428109 -2.0946138 0.20010628 -1.0898907 0.6425406 -3.4666092 -0.36786464 0.98401666 -0.6989678 -2.2314997 -1.356577 -0.89438003 2.6150498 1.6486683 -0.7279461 -1.4705 0.50668293 -1.6608616 0.7274728 -0.22934699 -1.3379643 -0.49568358 -0.27323908 1.165013 -0.7024954 -1.9315255 -3.0332408 -1.348648 -0.39123866 2.5808384 -0.8572759 -2.4747012 0.47733086 1.1312741 -0.11052075 0.85991687 -0.503374 0.32023075 
-3.8805077 -1.7543875 -1.121626 -2.8419003 1.3859209 -0.4482451 -1.5473849 -0.029845536 -1.691732 -0.8752795 1.7708831 -2.0497046 1.3340347 -0.7639835 -1.0649614 0.29771638 -2.2193708 0.80647784 -2.2963178 -1.3746021 -0.95567036 -0.9553977 -2.1155326 -1.6275535 -0.59983635 1.2721376 -0.5125058 2.3408825 -1.4333277 -1.1030443 1.350133 -1.4407787 -1.7471297 -0.12886702 0.013393812 -1.4079924 -2.9656727 -2.1884806 -0.56147164 -1.0013329 1.9429979 -3.320499 -0.53347987 1.0086001 -1.1886553 -3.4544275 -0.7602726 1.3962224 0.8099086 1.730591 -2.0478814 2.6972728 -1.2629628 -2.669134 -1.5123429 0.13525563 -1.921638 -2.7645915 0.8371892 -2.7476745 0.49198925 -1.7417662 -2.3369763 -0.19482143 0.3551465 -0.6471007 -1.8228877 -1.1436006 1.0830785 1.8039466 0.21569277 -0.5581371 -0.93754596 -0.939391 0.8136338 -0.5373582 1.3378623 -0.9120387 -1.6687508 1.9945203 -1.0924052 0.07105785 -0.09536785 -1.2335439 -0.44936433 -0.042113278 -0.009914478 -2.3557928 -1.4696667 -0.8559995 -3.1699095 0.022689914 1.9998336 -0.85245657 0.0029209747 3.3088646 -0.6282715 -1.6349382 -1.6671007 -0.40198848 -2.4938562 0.45908496 1.9552108 -1.3946315 
-0.0444662 -0.73633623 -2.6342804 -1.4080338 -0.19069171 0.38863438 -0.08696076 0.09951984 -0.62169284 -1.2474179 -0.9463845 1.767766 -2.5028632 -0.25488895 0.75296545 -0.7267976 0.4252014 -1.6138306 -1.3606672 1.3566768 0.14288896 -0.97785145 -0.8075395 -0.08607339 -1.3521408 -1.6070167 -1.1643784 0.3493257 -3.5405996 -0.86462694 0.45044467 -1.2957729 -1.779065 -0.3517403 0.2827562 -0.23945935 0.896785 0.9483603 -0.121491976 -0.86005193 -0.9917357 1.2574044 0.22360587 -2.0604331 -2.3410556 0.3058857 -0.98909634 1.4365084 1.3743955 0.4109716 -0.29544842 -0.7583652 1.2807318 1.2291391 -0.65791595 -3.4152794 -1.4059426 2.4374053 0.05547459 1.9961408 -0.5200223 -1.9649446 -2.7158163 0.33560082 0.0021463335 -0.30926955 -0.44422504 -0.2281352 -2.61438 1.0437212 -0.5710845 0.8058111 0.65148365 -0.42269656 -0.070903525 0.9795758 -0.561973 -1.6451559 -0.726397 -0.48872247 -1.3710321 1.4084541 0.0346427 1.4194286 -0.60520196 -0.9772179 1.8042547 -3.2816613 -0.7537783 -0.043127287 -0.10472308 -0.9095586 -2.6270766 -1.3243533 0.59407103 -0.7067682 -1.2726587 -0.76812905 -0.7659041 -1.3744264 -1.3312047 1.180573 -1.7903075 -0.66413814 
-0.075591855 -0.4921866 0.33250654 -1.4015876 -2.407994 -1.7561156 -1.5539762 -0.18957467 -1.3286564 -0.59185046 -1.1744289 -2.9611683 -1.5857203 -0.41774756 0.9319763 -3.3572063 -0.7858973 -0.7805691 -1.3387119 -2.4592292 -0.40507877 -1.1770602 2.5300345 -2.4880803 -0.030779175 -1.6163247 0.19394866 -1.8608832 -1.2097367 0.3441476 -1.0079484 0.6037603 -0.8123959 -1.2370899 -1.3871285 -0.7682329 -1.4696283 -0.064974345 1.109726 -0.79936725 0.28664333 0.59305364 -0.3578055 1.085331 -1.5384066 -0.42129558 -1.3695263 -1.0463833 -0.85990363 -1.7357553 -0.39262298 -1.5467058 0.18740852 -3.689104 -2.4898562 -0.07431738 0.8253507 -1.535498 0.419605 -0.01178863 -1.4957932 -0.3931322 -3.7048674 -0.93744314 0.19730744 -0.93241626 -0.36759466 -0.23206346 -1.3713541 -1.5619848 0.25383523 1.8901646 -1.4295772 -2.8882134 0.14287847 -0.119361654 0.1867267 0.33791205 -0.747858 -0.89809936 -1.9817578 1.5255185 0.2652871 -0.95567596 0.1495024 2.778717 0.5108162 0.8758363 -1.0885319 -0.23351829 -2.8270931 0.8924609 -1.437345 -0.47333685 1.4918911 -0.4173378 0.13811427 0.103638686 -0.816507 -0.92739594 -1.9574053 -0.8930835 -1.0628686 -1.4015872 
2.734282 -1.443351 -1.0935247 -1.5789738 -1.727659 -0.8951977 -0.36825 -4.0180125 -0.6229452 -0.86038446 -1.3882592 -2.1999176 0.08215496 -1.8587571 0.7334546 -0.29793212 -0.5561173 -1.5554259 -3.7163982 -1.8277539 2.4388158 -0.22738323 -0.87640977 -1.7753718 -1.6174868 -2.259596 0.2082859 -1.4787405 -0.018174045 -1.9846767 1.319165 1.5212107 -0.04935586 -0.6272165 2.2339807 0.008808074 -2.349663 -0.8797972 1.5223602 0.6357515 0.21774656 0.03960081 -1.248068 0.8652944 -0.95149785 -1.3826765 -0.16862774 1.3083456 1.8158094 0.30136403 -0.15180764 -0.97909546 -1.2068238 1.1819441 -0.6512186 0.78725433 -1.9818168 -1.9900855 -0.06489571 -2.8253376 -2.0293884 2.3261638 0.9735852 -1.351051 0.10504792 -3.0105946 -1.6068716 -1.8644288 -0.27101734 -0.06701379 0.43117228 0.36866248 0.09516377 1.6916006 -0.48403305 0.75510585 -2.6621802 -0.62757826 -1.6703597 2.5069838 -1.4494658 0.08109525 -2.7054029 2.0318742 -0.11410163 -1.1700946 0.6541923 1.4296011 -1.8733703 1.1054981 -1.0409433 -3.0130415 -0.43680072 -0.4693007 0.6566063 -1.3554174 -0.7373681 2.612256 -1.9705347 0.937962 -0.7572697 0.66513574 -1.154211 -0.3243909 
0.37634507 -1.2304233 -2.135439 -1.4132739 0.6903509 -0.58508503 -1.4054779 -1.6958941 -3.506276 0.02726653 -0.9469252 -3.563174 -1.8940055 -1.1951954 0.24939935 0.32941025 -1.9490728 -2.7533138 -2.4855907 1.2093385 -1.1485585 -1.1303219 -0.42274752 -0.51249635 0.9176772 1.0389017 -0.5317643 -3.0042334 1.2460746 -0.12078201 -0.6111722 0.31955385 -0.7164003 -1.0475856 -0.8866017 -0.8051834 -1.3325092 -0.89884394 -1.5269003 -1.0858494 -0.6259496 -1.3345342 -1.6650773 -0.82047933 -0.9108307 -0.9269561 -2.052048 -0.36688522 -0.93949157 0.07670139 1.5087557 -0.18980213 0.61104804 0.35608512 -0.7295568 -0.25216335 2.2712617 -3.7262719 -2.250634 -0.9931797 -0.31074202 1.3550621 -1.0288259 0.3051619 -0.5202262 -1.3031806 -0.065765955 0.20528337 -2.6845808 -0.75586414 0.24247685 0.48556757 -1.025649 -2.510749 -0.08389834 2.0946486 0.11743289 -0.16133869 0.41992566 -1.0683185 0.6319571 -0.008903438 1.1046329 0.13183577 -0.27920327 -1.0881395 -2.6262774 -3.0211134 -2.6636631 0.46917546 -2.363611 -2.535438 -0.9895246 3.191209 0.6209419 -1.0388983 -3.4106927 -2.658491 0.35701987 -0.78358346 -0.27845487 -1.5375712 -0.25161237 1.7988362 
-0.47282574 -1.0679091 -0.91956776 -1.4984388 -0.3171805 0.09213161 2.2513802 -1.3239633 -2.5422342 -0.4564216 -0.60911804 -3.3333006 -1.4192545 1.3875033 -0.3194395 1.0909518 -1.3830607 -3.2190495 -0.105979964 0.8511806 -0.40818033 0.35851583 -1.9151971 1.0824852 0.7640393 -0.3963959 2.770208 -2.25569 -1.3279293 0.95749635 -0.711776 -1.4038196 -0.097167835 -0.9601362 -0.10965223 -1.2774404 -1.5823576 -1.7633593 0.9322132 -2.23503 -1.9396127 2.2144682 -3.0124695 -0.25295818 -0.44767493 -2.5929883 0.32478482 -1.5621812 0.8405067 -1.9533551 -1.9037414 -0.83710533 0.17735048 1.3267618 1.8703996 -1.1528894 -2.0695043 -2.049089 0.095851 0.49961698 -0.32392323 -0.695091 -1.8598717 2.4210367 -1.3763779 -0.40602982 -1.5116843 -1.5233856 -0.5298789 -0.045733195 -0.723163 0.46827298 0.84403765 -0.14754526 -1.0317272 0.08609625 -0.15012594 -0.7390178 -1.2735016 -0.5667075 -1.1497045 -2.5230489 -1.9836997 -0.2370329 -1.2407944 -0.5785326 0.58212847 -1.574635 2.7096481 1.3161519 -0.657455 -0.015950285 0.327984 -0.8614107 0.8747813 -0.21220371 0.3764575 -1.2849286 -0.42626807 -1.3783022 -0.83769137 1.1055254 0.704436 -0.71886057 
1.5516804 -1.0834719 -0.5946378 -2.437587 0.6777161 -1.9107641 -0.5696666 -0.6663892 -0.23537752 -0.6389668 -0.7089114 0.93193305 -1.8558261 -0.10857172 -0.012226196 0.2562977 0.29991758 0.12593101 -0.5042199 -2.103658 -1.672547 0.3940182 0.439083 0.36849642 1.0513629 0.62934726 -0.732846 1.39218 1.1055092 0.58485377 -1.0515414 0.08188676 -1.2086776 2.899459 -2.6060555 -1.1951817 -2.051656 -0.687998 -0.29191625 -0.55624723 -1.4281124 0.46350896 -0.47670788 -1.4116848 -0.692531 -2.153864 -0.98276854 -1.8362141 -1.3749156 -0.6534214 -0.17551495 -1.8924743 -0.72700757 -0.49487168 0.9210758 -0.89872056 -0.79397553 -0.97941476 -2.456672 1.4419122 -0.19336884 -1.355195 -3.2364752 -0.23929876 -1.1323231 -0.7986104 -1.3082144 2.4386165 -0.3004654 -2.7143455 0.98619735 -2.2789102 -0.846493 -3.1574378 -1.3818495 -0.6794284 0.41838664 -2.3041189 -0.8447171 -0.26104924 -0.7993783 -1.4871635 -2.2130232 -1.5152733 1.1566492 -1.1557693 -1.7833369 -1.5738217 0.68248326 0.56512314 -1.2431097 -1.6145574 -1.8332257 -0.9022929 0.5859534 -0.74582404 -1.3952549 0.4963881 -1.2024132 -1.3190364 -0.02469144 0.5689187 -1.9418749 0.6387223 
0.6921172 -0.715981 -2.6579325 -1.6711808 0.36296573 -0.664606 1.6007615 -1.0870057 0.31526253 -0.7991229 -0.10128746 0.30286723 -2.2403705 -1.3394638 -1.0233978 -1.5514781 -2.1463575 1.1456666 -2.8933356 -0.40087858 0.008843654 -2.111498 -1.8675961 -0.5959742 1.4692082 1.4849178 -0.5858319 -0.2965801 1.3007494 -0.4427016 0.01849242 -0.6621617 2.8084264 -0.6835244 -1.9019527 -1.6160247 -0.4006646 -1.4301615 -0.17219481 -1.2659451 -0.2350346 -1.0733107 0.7964437 -1.3225292 -1.2690529 -1.5314132 0.092983566 -2.2323632 0.20669672 -0.6567765 -1.1180491 -0.0959347 -0.90394306 -0.48587415 0.41905838 0.22883262 -0.64167774 -0.5346982 -0.80401194 1.2365861 0.011986021 -0.9392987 -1.9343345 -1.6151975 -2.765092 -0.9759386 -0.9738777 -0.58090746 -0.6737869 -2.348088 0.05675985 -0.8470751 -0.21835113 -0.23969804 -2.6183975 -0.669466 1.4331162 0.7477668 -1.0327322 -2.2886462 2.3140385 -1.3083328 -1.57805 1.0355084 -0.9573163 -0.8476552 -2.5594711 -0.14905399 -0.99927044 0.47422066 -1.4870813 -0.024889018 1.20418 -1.2211854 -0.54019296 -1.6517695 -0.27668655 -0.40386418 -1.7946678 -0.8148326 -1.2779434 -1.7697945 -1.6681654 -1.1525943 
0.8485906 1.840328 -0.7052273 -0.8116463 -0.5335976 0.10287387 -2.9795346 -0.9375527 0.64325184 -0.1323812 0.81591684 -0.07939593 -1.2346292 0.095595084 -1.7093438 -2.5979915 -0.17983036 1.5966003 -2.2762275 -1.2023296 0.01307595 -2.449696 -1.2990824 -1.0511627 -1.3245944 -1.3182503 -2.2958992 -0.51443136 -0.07041747 -1.8489584 -0.90719 -1.1472098 -0.2302706 -1.0752193 -2.6355245 -0.45990518 -2.506384 -1.539386 -0.84957415 -1.4361196 -1.88753 -0.6294279 -1.4617463 -0.16565154 1.1551235 -0.71422243 0.4900465 -2.978154 -2.1492252 -0.85966706 1.1887603 -0.74326426 -1.6092057 1.6321108 -0.2880508 0.6626544 0.08624731 -1.8993567 -2.739276 -0.884135 -1.7674911 -1.560885 -1.0170387 -2.637152 1.449923 -0.41307947 2.6527088 -1.1810273 1.2950059 -1.1750867 0.37157133 -0.12205489 -2.3362267 0.018247588 -0.8301413 -1.5987927 0.669446 -2.2652724 -0.6871352 -1.2376616 0.10518978 -0.85277545 -0.6927905 -2.8220928 0.32338127 -1.4423875 1.0246754 0.9849517 0.08390821 -1.0001909 0.4455247 -2.8458462 0.06641823 -1.3981742 -3.2068439 -0.65538704 -1.3610655 -0.97626996 1.541012 -1.9416763 -0.5887839 -2.3043478 2.6409483 -1.2355363 
-1.4876451 -0.16919497 -0.063337214 0.8775627 -1.244782 -1.3104638 -0.9717318 2.2843857 -1.3276644 0.3938021 0.6934443 0.5524648 -0.17140248 0.34186074 -2.1071565 -0.0009308625 0.05354998 -0.6850988 1.0045257 0.66040415 -0.31741425 -2.2449346 -0.49082655 2.8647788 -0.83245176 0.23928571 -1.852643 -1.1125047 -0.14709471 -1.1377115 0.65133274 0.26532334 -1.3211067 -1.0628227 0.10316804 -0.21497205 -0.14162928 -0.01387095 0.9854117 -2.3344135 0.3131005 2.2184515 -0.2798362 -1.17165 -0.05155969 -1.234161 0.8497826 -1.249768 -2.2770748 -2.9754717 -0.7056812 -1.099152 -1.5058144 -0.017117871 0.387002 0.5232216 -0.4432134 -1.8633612 1.8964176 -1.2473613 0.84061694 -1.7220342 -0.5310855 -2.0980198 -0.30608025 -1.520478 -0.59961736 -0.8652121 1.261483 -1.7985064 0.258234 -1.916742 -1.3191428 -0.76837593 -2.149835 -2.229041 1.2616981 -0.16077588 -1.5383321 0.8372162 0.79023325 -2.1693454 1.1871952 -1.5031534 -1.8100872 -0.78632885 -0.96739405 -0.7787408 -0.61485445 -1.1397622 -0.44638842 -1.1415395 -3.2911513 -2.0443919 -1.3440638 -1.1789641 1.552386 -0.48377863 0.01683894 -0.6481461 -1.6511014 -1.5129055 -1.0308481 -2.2020116 
-1.4314557 -1.5336208 -2.7430925 -1.1883881 0.81895155 2.8751328 0.12856436 -0.82422173 -0.96143836 -1.9351997 1.5922283 2.316705 -0.035601787 -1.0955113 -2.451806 1.5793422 -1.1369933 0.10728085 0.18933292 -0.186574 0.11786303 -1.5178946 -1.3364564 -1.5890825 -0.876734 -0.060262166 -1.2399851 -2.1336286 -1.0218804 -0.44790405 -0.6429662 -1.619876 -1.0549506 -0.8593702 0.8620201 -0.7739 -0.8978696 -2.9100842 1.4283338 -0.2977108 1.3513293 -2.129961 -0.95567596 -0.32518795 1.5621831 -1.12257 0.7425935 0.15768565 -0.29777655 1.2373215 0.5821824 -1.6485674 -1.1194602 0.17152536 0.43191653 -2.6303587 -0.18684989 -1.4490554 -0.76756287 -1.0405637 -1.0651895 -2.2289987 -2.8640625 -0.27414966 0.63460904 -1.5139639 -1.3862205 0.0031603614 1.7993834 -0.9198212 -2.6489751 -1.9754374 -0.42084524 -1.2063767 2.3144846 -0.7700743 1.6826235 2.231783 -1.3656898 -1.3691274 -1.5022858 -1.5341778 1.7408793 0.10198716 -1.1146313 -0.49486682 -1.0037956 1.5353281 -0.69175476 -2.2257144 2.1241515 -2.0606036 -0.9267953 0.16361207 -0.0014868218 -0.18547724 -1.7364405 -0.1997962 1.4538965 -1.5162514 0.48531863 -0.67497635 -0.8794082 -1.575467 
-0.49270457 -0.012736548 -3.1083765 -2.048369 -1.5885066 -0.9348548 0.21588692 0.25766113 -1.4878416 -1.0770173 1.2116877 -1.1531222 -1.2339276 1.1485676 0.25222173 -0.4525645 -2.4100263 -3.3820567 1.0200816 0.12861724 0.18472333 0.5546263 -0.56395394 -0.5400001 -2.2005484 -0.49647322 -1.9095303 0.08188438 -3.187451 0.8471746 -1.1571901 0.9491591 -1.1246346 -0.5154668 -0.6605347 0.053902023 0.13570964 -0.8736404 1.2661142 -0.63637525 -0.386675 1.54452 1.4172446 -1.0197875 -0.18234096 -1.9939917 -1.3578808 -0.360302 -0.07931881 -1.2951534 -1.6770416 0.0015269901 -0.9581004 -0.5007387 -2.1734002 -1.0995227 -3.008833 -2.4930866 -1.304822 -2.1577783 -0.8842171 -0.9928707 -0.3628732 0.6417805 -1.8502547 3.2238688 -1.2819514 -0.71956474 1.6043735 0.1405726 1.0027611 -1.6600868 0.6800932 2.6549964 0.5464388 -0.5156171 2.136209 1.7538952 -1.2992809 -2.1372418 -1.0229365 -1.5500209 -1.8709126 -2.805867 0.3311566 -0.8355921 -1.6055692 -1.0677829 -0.6417805 -2.1927009 1.8729354 0.8611054 -0.15363078 0.50727904 -0.93307436 1.5762691 -1.9180363 -1.198438 -1.5588112 -0.44282398 -1.3778063 -2.7866988 0.5701325 0.7281359 
-2.1677296 1.2593395 -3.5431514 -0.9045431 0.46767643 -0.7978678 -0.5456639 0.98570544 0.379673 -1.3943026 0.8646842 -0.9501058 -1.7349055 -2.180693 0.19623408 -3.943955 -1.3338361 -0.33715233 -0.019738942 -2.1955788 -1.8080062 1.0507299 -0.023127895 -1.8731945 -1.6058472 -1.7349488 -1.1091238 1.5825068 -1.1753381 -2.5017626 -0.873826 -1.694698 -0.76825017 -1.3189176 -0.86737955 1.8826903 -0.36802107 -1.1995885 1.7754169 -0.33781284 1.2380041 -0.20876494 -0.26041564 -0.8175853 -3.947328 -2.2566504 2.7075026 -1.7551572 -0.2910099 -0.33755824 -2.2665548 -2.7207654 -2.2284837 -1.404923 -1.4436249 -3.0246768 -0.40083858 0.3371218 -1.889078 -1.2178388 -1.1537552 -0.46752807 1.1201209 -0.49994436 1.5321804 -0.5092831 -1.0346682 -1.2265527 0.49743155 -1.747505 2.392973 -2.268262 0.58817995 0.67997396 -0.08479875 0.25922304 -1.7148198 1.2823313 2.306589 -0.23947795 -0.39850453 -2.1182065 0.7901796 -1.291197 -0.953387 -0.4838169 0.7582531 -0.8324544 -2.6906126 -0.050839588 -2.0325906 0.8736673 -1.1632677 0.6226476 -2.8254032 2.3063462 0.86027825 0.3717458 -1.3655027 1.7448637 -0.48093563 -1.2969495 -2.0569124 0.48429444 
0.117978394 -0.60268617 0.18773235 -0.56255037 0.8089198 -1.0344445 0.6756805 -0.6749732 -0.97001696 0.5766861 0.9792596 0.8754757 1.639294 -2.1174767 -0.77853405 0.115153655 -0.534234 -0.0036956575 0.55136585 0.5300646 1.2832882 0.82331854 0.11698768 -1.0981444 -1.0408839 -2.3986223 0.8897692 1.180438 -1.493457 -0.4025057 1.8731017 -2.4207072 -0.6002408 -0.41355434 -1.1209627 -0.88501245 -2.2342 0.65004593 -1.1963488 -0.20746902 0.45254892 1.6582246 1.2137573 -3.0021856 -0.47520754 0.56834006 0.47238913 -2.6014988 -0.6448009 1.0071135 0.51803786 2.3270361 -0.5113913 0.68459666 1.4221103 -0.32930547 -2.4443684 -0.41528505 -0.5476406 -0.30830732 0.6060811 -2.936922 -2.452327 -0.7892322 -2.5765023 -0.7959439 -0.4623381 -2.7498324 0.1638118 1.0512348 -0.9772139 -0.0053866254 -0.88392735 0.29366806 -0.6114572 1.1031048 -1.1095631 -1.027339 -2.051806 0.55290425 -1.4719528 -0.92287433 0.47679946 -0.55966324 -0.21421233 -0.45216185 -0.12511992 -3.31574 -2.1578362 -1.3058319 -0.37246323 0.9429185 0.53968537 -0.31526247 -0.052000917 0.003743756 -0.24232319 -1.9270973 0.7535333 -1.9491699 -0.93334013 -0.30342567 1.6038306 -0.24518518 
-0.8426297 -1.0152928 -0.55741554 -1.0693756 -1.0826564 -0.21557896 -0.57962394 0.11724891 1.4472669 -2.1833763 -0.28434074 -0.393441 -0.48553243 -0.5095533 0.09080823 0.53680885 0.04465824 -2.5280979 -1.8338269 -0.9233601 0.35891908 0.6062488 -3.1819193 -0.18806615 0.93183917 -1.2083986 -1.0989923 0.12846145 -0.72967696 0.080781214 -0.9216077 -0.16138034 -1.0225768 -0.99880767 -2.5821347 -0.48085898 2.21565 -2.2188938 -2.329795 -1.775557 0.18739346 0.52095234 -0.08724299 -0.49677643 -0.58016396 2.0373447 -1.3773504 1.1078342 -0.8603191 -1.2363977 -0.23052275 -0.85602176 -0.6164502 -1.1173286 -2.9023762 -2.432127 2.1847696 1.5394475 -0.29125547 -3.4173458 -0.42574605 -1.195311 -0.41788617 -0.24874961 -0.2577077 -0.22039695 -0.84608376 -3.2508354 -0.43353948 1.2788419 0.33659232 -0.85871667 -2.4192545 -2.2148323 1.6910187 0.037333563 -1.8296658 -0.4853305 -0.42961878 -0.28431025 -0.52996236 1.4655664 -2.1048353 -2.03519 0.49924877 -0.26147005 0.6762128 -0.98968244 -0.8825152 -1.2511036 -0.99722713 -0.09641895 0.092022516 -0.42212301 0.6109439 0.14643046 -2.1583655 -1.5874726 0.5045707 0.9138528 -1.0153215 -1.2591935 0.17060506 -0.022966536 
-0.5445836 0.44427785 1.44493 -0.86656314 -1.9011276 -0.84002966 0.5745451 -0.6460143 -2.4225416 -1.0356392 -0.7776366 -1.3782485 0.15775333 -1.5837693 -0.6072669 -0.62339216 -2.2224634 -0.5930307 0.99262065 1.9425949 -0.5931841 -0.027507482 0.04833244 -1.0015169 0.50233763 0.20675349 0.7748334 -0.89084196 -0.42336056 0.801873 -0.6219778 0.8481835 -0.2948638 -0.50250626 -1.1793102 -1.2048758 -0.80484754 -0.435765 -0.42271975 -0.48050764 -0.71585053 0.65109 -0.49281886 -1.8985546 -0.90341425 0.01576328 -0.543659 -0.36819938 -2.3009608 -0.49149892 -3.6631446 -0.41195166 -1.2931322 -0.15412322 -0.16240765 -1.1923506 0.57361335 -0.021460375 -0.55702806 0.21637855 -0.12680018 -0.6329262 -0.23934463 -1.6800151 -0.45732558 -1.2923691 -0.19563489 0.21479295 -1.5334617 -0.53156275 0.7353768 -1.3479192 -0.30417266 -0.43999967 -0.11679848 1.006755 -0.31509724 -0.65414494 -0.4900389 0.57616115 -2.4814517 0.54637027 -0.02713827 -0.62234515 1.0003772 2.0573678 -2.3438447 0.6644499 0.1268186 -2.2109046 -2.0030456 -0.16659254 -0.044256583 -0.3312059 -1.0069748 -0.12399735 -0.87210107 0.46147516 -0.3565758 1.545722 0.09948872 0.2559867 -0.9033586 -2.2846072 
-1.8152641 -1.2549812 0.7636185 -1.3794068 -1.751658 0.19137292 -1.2135776 -0.46140164 -1.9685787 0.85393685 -1.0901788 0.9492239 -0.50040996 -0.8022797 -0.14448111 0.39844865 -2.6669557 -2.5387936 -1.3935742 -0.982376 -0.9676713 0.8102574 1.3613852 -0.12449799 -1.4050397 -1.117604 -0.31241712 -0.43984276 -1.0400289 -0.8637406 1.2671152 0.22351012 -0.29288706 -0.047347993 -0.17703338 -0.42540544 -0.89421064 0.074957885 0.28394833 -0.16198213 -1.1145391 -0.5383865 0.056707222 -0.5985599 -0.42731345 -2.2999651 -0.085386634 0.7427674 0.428849 -0.45369515 -3.4486887 -1.2797416 -1.6175765 -1.0244379 0.76266843 -0.0642691 0.21949977 -0.9889524 -1.0706478 -0.6171846 -1.0824751 0.96188045 -0.60272706 -4.035345 -0.3693017 -1.6661612 -0.3928109 -1.6742145 -1.2759461 1.2076752 -2.3094568 0.311105 1.3496691 -2.8210065 1.559671 -0.8850248 -1.3394009 -0.43341842 -0.27230057 1.8314153 -2.0608351 -0.7731924 -0.89372164 0.61955833 0.38997883 -1.0063449 -0.90146434 1.2142721 -0.67189616 -1.9048057 -0.59087163 -1.3055456 -1.0616597 -0.2674784 -1.4467098 0.60254455 -2.202607 1.9619414 -0.35685962 1.2918113 -0.75707936 -2.0087209 -0.13479756 0.51511306 
-0.028551318 -0.11700119 -1.5674306 0.7974747 -1.2326947 -0.9391178 1.0953649 -1.0451299 -2.9592724 -1.0692594 -1.5050998 0.5174587 -2.7988114 -0.308019 -1.5623056 -1.8598365 0.07743107 0.34650955 -0.06606102 -2.3501415 -0.056533348 1.5420266 0.8122519 -1.0468524 -1.9897349 1.1012942 -0.5480404 -0.21254519 0.28500396 0.3968393 -2.4485147 -0.49587452 0.012107434 -0.78906643 -0.159498 -0.051058687 -0.95465106 -1.018366 0.20714986 0.026655693 -0.81285053 0.9358683 -0.31916752 -1.341517 -0.51308817 -0.6959247 -0.8727823 -1.5106984 -0.862286 1.2861693 -1.4995552 0.16690445 -1.9221809 -1.1326478 -3.4223568 1.3633872 -0.8130693 -0.9224399 1.334065 0.24355984 -0.8579673 1.678731 -1.9939275 -1.5501637 0.092038244 -1.2138761 -0.5849262 0.5599509 -1.6396589 -1.1741996 -0.9395225 -0.94489443 -1.4737093 0.16402957 0.14051862 -1.4008452 -1.8627629 -1.270119 -0.44768393 -0.83184904 -3.529953 0.31191257 0.9373963 -0.20236826 1.2864518 -1.1376476 0.24740054 -2.4086256 -0.29953292 1.9525892 -0.2991775 -0.004143034 -0.6328936 1.9215046 -2.112761 -0.20771885 1.1088169 -0.72102207 -1.9130373 -0.853296 -0.51887214 0.07021035 0.16428815 1.6456271 
0.03284062 -2.7076955 0.48609746 -0.93172187 -1.247473 0.007645285 -2.1623461 -0.8548156 -3.6619406 -1.0899794 -0.5482738 0.124356486 0.49239787 0.4399631 -1.4123076 0.23592684 -1.6119033 -0.7799132 0.27337587 -1.2743843 -1.311936 0.21323918 -1.0760943 0.6293776 -1.167756 -0.049665015 1.3813186 0.14433615 -1.7113271 0.77279556 -1.3316067 -1.9685951 0.2170797 -0.33570075 -0.9442727 -0.01133283 -1.0570315 0.18996862 -2.6455112 1.2316271 -1.1153827 -0.91324854 -3.3653946 -1.1343036 -0.21601571 1.3152846 0.15057214 -0.84328765 -0.818036 -1.4500961 1.4026401 -1.2583392 -2.053669 -1.0664493 0.30395553 1.8110496 -1.1208733 -0.39432615 -2.3551342 -1.3433576 0.16659464 -0.09914034 -0.064781815 0.38358778 0.9641864 -2.6584334 -0.48267597 -0.51571816 0.21744616 0.052717455 -1.1325711 -1.1055542 0.35659006 -1.0565364 1.9114087 0.32580912 -1.0337785 -0.21884488 -0.41671547 -0.6518145 -0.56640273 -1.3267807 -1.480014 -0.8209526 -0.27444497 -0.54448444 1.4208648 -0.31885585 1.3857076 -0.50439763 -2.4263444 -1.7834026 -1.103289 -0.3659417 0.08219864 0.33980346 0.59218556 -0.5015967 0.009040614 0.22018635 -0.33016986 -1.0805991 0.07794693 -2.8493469 
-2.0680535 -0.4516594 0.41930223 -0.6037763 0.017527001 -2.0110052 -0.90867996 -0.30901733 -2.8507626 0.5006798 -0.41690192 -0.26916987 -0.24187617 -2.0663729 -0.48950094 0.6715958 -0.8318879 -1.8135357 -0.9527332 0.8409398 0.54050106 1.1154714 -0.9217173 0.35366216 -1.2969224 -0.5005267 -1.250426 0.605746 0.37154564 -0.76328856 -0.04499013 -3.3958352 -0.50397193 1.881651 0.848732 -0.54900753 -1.0230831 0.02636278 -1.9922305 0.3921848 -1.0746605 -1.6503092 -0.674886 -0.6870311 0.82493377 -0.5945762 -0.89439344 -3.009429 -1.7390463 0.2841993 0.57233596 -0.7449456 1.1631179 0.3296128 -1.1270148 0.100090384 -0.17767768 -3.032029 -2.4269614 -1.7457697 -0.9403261 -1.0453368 -0.7425829 -0.11815817 0.7083141 0.036793787 -0.5722902 2.2220352 0.55417395 0.710719 1.0050888 0.26449752 -1.8359996 1.392009 -0.13633996 -0.37301067 0.3649346 0.03572637 -0.5772521 -1.0209838 -2.1447964 -0.7384951 -0.631708 -1.1423362 -1.5559692 -1.085846 -1.071786 -0.6360702 1.2774117 -2.7929056 -1.0981929 -2.9909372 0.3013252 -1.7130665 -0.027315093 0.24458182 -0.7903089 0.23538817 0.5768837 -0.9282268 -1.542102 -0.99150324 -2.0067825 -1.9091486 
-0.57034814 -1.8751384 -2.3780248 -0.97546196 -0.7989243 0.117809065 -1.8591375 -0.526189 -1.245965 -0.27417636 0.8031913 -0.27563292 -0.34770843 -1.4577534 -0.91522133 0.45220113 -0.34451994 -3.3925867 -0.5469578 -1.7341456 -1.154172 -0.7034274 0.47988465 1.474632 -3.670837 -0.7292776 -0.54865015 -4.143868 1.1344209 -2.4705145 -0.091512285 -0.08450014 1.8295013 -1.0342853 0.116670534 0.07131577 0.23726152 0.49327654 -0.7394207 -0.95516664 -0.8618533 1.3562906 -3.6061504 0.6180751 1.0056542 -0.55638385 -0.40869597 -3.5137072 -2.6289282 -0.66233057 0.0019770246 -0.83154124 -0.8746839 0.9509048 -1.1612487 -0.29587123 -0.10413286 -1.0311619 -1.5372398 -0.7604523 1.4833696 -0.8828687 -2.473517 -1.5037092 0.5900605 -0.05059398 -0.4924397 -2.2488728 -1.9298555 1.9894633 -0.6849762 -1.0404799 0.6322109 -1.5618649 1.0483285 -1.0363268 -1.7435181 -1.0845346 -0.5760677 -3.5341444 2.1555314 -1.2424881 0.04568377 0.12984173 -0.17256063 -0.5018651 -2.174998 0.41680256 -1.1507758 -0.3347701 -0.13844594 -0.25227523 2.0126886 -0.8536732 0.98105955 0.3226189 -0.7853698 1.5615898 0.76668566 -0.70164126 -0.8009013 0.04524515 -1.7404563 -0.770429 
-0.90447277 1.1171889 1.2821277 0.34978274 0.6752383 0.22464624 1.177808 -0.54279083 1.815683 -0.82136166 0.72492015 -0.041182477 -0.80405337 -1.7209039 -1.5761422 -0.028209519 -2.4307325 -0.5008409 -1.7036041 -1.2256672 -2.541152 -0.060213245 1.3271934 -1.7724736 0.37127173 -1.6893438 -0.36160734 1.4297255 -2.405445 -2.2046573 -0.27117717 -0.122070074 -0.7143786 -1.2220385 0.9457151 -0.504788 -1.379028 1.1807207 0.12807848 -1.0810257 -0.5444415 -0.19724306 -2.3299294 0.26503137 1.6274763 0.5911233 -0.6158988 -1.1281122 -1.9831398 -1.2974224 -0.72914976 -0.9348127 -0.57913256 -1.0128855 -0.8722628 1.1736583 0.30383372 -0.38955283 -0.43752944 -1.9739057 -0.10467991 -2.6135736 -0.48667696 -2.1604548 -2.1041143 -0.15749918 2.0409496 -0.7927069 -0.954946 -0.06988747 -0.19018775 -1.4603254 0.16742031 0.10504166 -2.247591 0.39555258 -0.743918 0.08825827 -0.15636669 -1.8452915 -0.20189895 -1.2039557 -0.5827871 -2.3323302 0.21298425 -0.855615 -2.4652262 0.19061033 0.6652122 -0.52945757 -0.20732422 -1.0596118 -0.26601344 -0.54863346 1.8114886 0.8157798 0.4118478 1.5475157 0.8490973 -1.5213975 -0.7532234 1.6974578 -0.39416698 -0.7333342 
1.494229 -2.2339187 1.9483949 0.8677639 0.5067378 -3.3239193 -0.055108353 2.1669426 -1.6100378 -0.89789236 -0.34786585 -1.7559984 0.14704372 -0.21401401 -1.1497506 0.22177094 0.06672459 0.104682505 -0.61462784 -1.0119038 -2.293836 -0.07714806 0.005766334 0.84772617 -0.5261159 0.20587303 -1.2158208 -1.3273065 -1.5434953 -2.1922295 0.25251937 0.81483173 -0.5297529 -0.13263562 -0.65637004 -0.4545404 -0.8260048 -2.871722 -0.65791684 -1.0543307 -0.13331145 -0.20763983 -2.607333 0.23573335 -0.57393736 -1.6579767 0.1549614 -1.7361292 -1.6141831 -3.239985 0.7273421 -0.81648546 0.13081536 -2.080073 -3.2077487 0.983583 0.102189206 -0.4230374 -0.19703843 0.38480413 1.7491189 -1.324589 -0.45397267 -2.3001351 -0.8177918 -0.237145 -1.1391227 -1.035826 1.3387637 -0.26298755 -1.4422966 -0.41565976 -1.6165445 -0.99261624 -0.115828075 -0.19529152 -0.8142064 -2.1312487 -1.0093763 0.72698736 -2.4441774 -0.09293201 0.47646815 -0.2118938 1.9222053 -0.719131 0.14188734 1.4854858 -0.90014166 -0.19275819 0.31613806 -1.7895907 -0.039355677 -1.0140415 0.9569882 -0.15271553 -2.56548 0.118160024 -1.309489 -0.5691227 -0.4938672 0.59774095 0.28550544 -1.399285 
0.6529205 0.57065535 0.67889714 -0.5604758 -0.14618456 1.7033308 -4.3487983 -0.34277812 -0.52603126 -1.8086702 -0.42378193 -3.283383 -1.1048405 -0.6059206 0.21493869 0.7714361 0.35338035 0.25163332 -0.6222151 -0.75593895 0.9572624 0.6770745 -0.046211965 -2.739718 -0.15821862 2.1652908 -1.6873068 -2.3499818 -0.0622124 -1.0235713 -1.8889985 -1.1166272 -1.2294371 -0.7007514 -2.286023 -1.2177907 -0.32282004 -2.4851873 -0.22618365 -0.913585 0.8527746 -0.084111735 -3.1328707 -2.8158815 1.4970847 1.2404108 0.35543752 0.2266219 0.8327018 0.9551633 0.78252685 -1.0163957 -1.0715511 -0.27936095 0.113988824 -0.3115783 -1.0003257 -0.94318557 -0.033354275 0.9805663 -1.0500964 -1.038139 -3.0343337 -1.3960419 -2.4218109 -1.884741 -0.46245965 -1.7968271 1.1906183 0.6577198 -1.5549003 1.5776188 -2.0513415 0.040868957 -3.669996 0.4153307 0.031921145 0.28123555 -0.21152174 -0.61675215 0.6304106 -2.327841 -0.2544152 -0.06948423 -3.9452574 -0.5052999 -2.7015297 -0.00048502418 -0.3428009 -0.06023495 2.301856 -1.4284568 -0.44640312 -0.86552745 -0.767514 -0.2704824 0.08505939 -0.0824389 -1.1887097 -0.63719714 1.7606486 0.8099912 -1.9952976 -0.8422859 
-0.22909905 -1.2852224 1.0621759 -1.0104101 -1.2594883 -1.2631732 -0.40822142 -0.2708698 -1.598179 -1.571831 -0.35714433 -1.261271 0.6426441 1.0129864 -0.85199463 -1.446018 0.66417617 -0.09187782 -0.4127108 -0.8988 1.0968817 0.95615995 -0.32735288 -1.1119616 -0.22872813 0.5640615 -0.8696749 0.45799774 -1.9953446 1.2814906 -1.2719707 -1.6788002 -0.5285892 -0.45796207 -0.18779066 -0.49380717 0.5558731 -1.456642 -0.04224094 -1.1820868 1.6728776 -0.15418576 -0.5027709 -1.4238853 0.41439408 0.47658816 -0.27505723 -1.2426047 -2.6440194 -1.1470377 -1.5317528 -1.2212597 -0.047917366 -1.5612398 -0.14502653 0.16526677 -1.0238812 -1.8551103 -1.9837534 1.020842 -0.4850002 -0.05741883 -1.1580986 0.13993196 1.1349694 2.2269685 -1.0674527 -0.9751597 0.5571824 1.3871897 0.34469524 1.1763736 -0.75137776 -1.982719 -0.44726545 -3.859446 -0.09142057 1.5522182 -0.92167 -0.080063 0.14148206 -1.4737266 0.40242225 -1.4819709 -0.018452417 -0.5277119 -1.6781752 -0.49475068 -1.3390611 -3.0288935 -0.1956821 -0.16315576 -0.93218046 -0.5910619 0.7835936 -0.0032870572 -1.01602 -2.4441094 0.5709145 -0.8407227 0.39122218 0.82077503 0.14635983 0.87780106 
1.4730246 -2.915055 0.12824622 -0.37510213 1.5562521 -0.69536185 0.13442552 0.7377007 -0.2459047 -0.69365996 0.6135084 0.6180812 -0.00031532458 -2.6856518 -0.5223507 -2.2389476 0.731236 0.5494124 0.6327771 -0.38866833 -0.51971006 -0.47633025 -0.8040442 -0.19745138 -1.0373173 -0.8854112 -0.9677252 -2.0199082 -1.0486689 0.12252484 -1.8451351 -1.5539314 -0.45441586 -0.3564117 -0.1211533 2.334976 -1.0676266 0.1932347 -0.21474215 0.0795225 0.20506647 -0.42568746 -1.9195105 -0.769373 -0.99895054 1.2067837 0.42125005 -3.9374301 -2.2886271 -1.942687 1.5064105 -0.6323101 -0.68849313 -0.370582 0.7139315 -0.47645354 0.93635416 -0.33252677 -1.1945678 -0.10099197 -1.5919179 -0.0680665 -0.5984784 0.28950876 -1.0172545 -1.041559 -0.4751341 -0.96456933 0.68381065 -0.15040658 1.3018262 0.684155 0.1259821 -0.5567437 0.3534618 -1.1075633 -2.7724757 1.8586004 2.509098 -0.16290756 -0.47849753 -0.79216653 0.02971262 0.15376794 -1.7815361 -0.5443819 0.3894503 -2.4629257 -1.2796093 1.7279716 0.01622569 0.39259312 -0.53678066 -0.61423314 -0.6729966 0.091454506 -0.9443631 -0.78073955 -0.07323275 -1.0676181 -1.0668781 0.4654561 -2.0990124 1.1516848 
2.1891172 -2.3007014 -1.2454861 1.1765221 0.23466088 -1.8040859 0.5265109 0.043310933 -1.3555522 -1.0943023 1.0836604 -2.117297 1.5508779 -3.1975555 -1.1741548 -2.0039406 -0.9712827 0.89170873 0.46398535 -1.7880992 0.5604592 -0.68219304 0.047393728 -1.0896242 -0.7255235 1.9262246 -0.9283997 0.044537574 0.33469626 0.17949945 -0.12135502 0.35963604 -0.46599844 -0.88663375 -0.570869 -0.7827119 0.22179247 0.5478156 -2.1004431 -0.1704034 1.4037738 1.6823899 -2.0871565 -2.1268616 -0.9447604 -0.8226321 0.43265307 0.80150276 0.39335242 1.4238367 0.66613406 2.6685245 -0.06644955 1.3374532 -0.31315967 0.30609 1.3808702 -0.52915794 -3.010207 -0.2809951 0.55348897 0.11610695 0.88139576 -1.5631447 -0.45840055 -1.1248568 -0.54657704 -1.4516456 -0.69706607 -0.05505218 1.8767787 0.3345659 -0.48343188 1.3904755 -0.7426976 0.36432323 -0.5953245 -1.2208225 -1.9534162 0.8052698 -1.994392 0.042769007 -0.4769212 -0.7789392 -0.017090537 -1.6546534 -1.2037926 -2.0650268 -0.17589775 -2.2152486 -1.669886 1.1979669 0.8655494 -0.6279571 -0.058101825 0.27399173 -1.4565824 -1.1798999 -0.11067993 -2.123117 -0.42074472 -0.40128794 0.4420562 -1.5328315 
-1.3992865 -2.2560325 -0.6265931 -0.79134536 1.3986617 -1.7294307 -1.1247728 -0.18660326 -0.6699635 -1.1703473 -1.7399601 1.0361624 -0.71095 0.539547 -1.6262761 0.85421544 1.184831 -1.0518442 -1.8269173 -2.2381048 -0.52173805 -1.6149142 -0.99473274 -0.13323165 -0.2870811 0.1706308 0.19839384 -1.1253527 -0.70581996 -1.2577397 -1.457116 0.53991365 -1.1900582 -0.12876552 0.27258402 0.21301296 1.817125 1.4448863 -1.3088627 -0.1709248 -0.24793544 -1.5986665 0.753774 0.42614928 -0.53939146 -1.3535001 -0.5963841 0.34889528 0.3519168 -0.18887317 0.022059625 -0.23017931 -2.1530864 0.35499257 -0.69737524 -0.82306856 0.36825264 2.319216 0.21316537 -0.4227751 -2.0168781 -1.4296389 0.6207576 -0.2820564 -1.14274 -0.88744754 -0.6212228 -0.81953776 -0.99866456 -0.26617092 -1.7486423 0.27850825 -0.8125145 0.6455603 0.14532436 -1.3038217 -2.1108098 -0.54974395 -0.30924767 -1.1200938 0.22498645 1.3044592 0.1445414 -1.1577669 -0.9843524 -0.63096696 -2.0964625 -0.66804624 -0.99743074 -1.517905 1.1454713 -0.42305562 -0.56838095 -0.7886822 -0.3336523 0.20394021 0.5800351 -1.6415173 0.012032221 -2.3742626 0.03606025 -2.6600296 -0.4580971 -0.30787426 
0.81344247 -0.96555185 -0.23680723 1.1415666 -1.5828228 -0.48313692 0.10041359 -0.97422403 -0.01155926 -1.3884913 -0.51854706 0.9340437 0.55384 -0.9282592 -0.68086565 -2.5483983 -1.95214 0.27369907 -0.18612184 0.7630149 0.54070467 -2.8830454 -1.742346 -1.4576066 -0.39870852 -0.9108605 0.59897625 -2.4143295 -0.6465906 0.332469 -0.39092016 1.5286988 -0.33409476 -0.4918782 0.736301 -0.27451202 -1.9525045 -1.1302083 -0.8104283 -1.2541058 0.0011994457 -2.4709442 -0.19197424 0.46520028 -0.4624119 -2.6828952 -1.3327878 -2.5053248 -0.025105456 -0.073154144 -1.2685232 0.40753058 -1.5435681 0.71045846 -1.4355398 -0.7859457 -0.8246424 -0.20053816 -1.3730937 0.46420473 0.20637031 1.0043806 -0.48831162 -3.531539 0.9644349 -1.33673 -0.015041683 0.14133964 -1.399954 -3.4228294 -1.1494595 -2.3098018 -3.526822 1.7746592 -2.5567615 -0.88950616 -1.680416 1.0889856 0.4814633 -1.0528284 -2.310616 1.4430077 -0.21503304 -1.9257042 -0.39745378 2.003448 -0.1868608 -0.9333305 -0.11507461 -1.3215057 -0.2689942 0.8380434 -1.204509 0.33359125 -2.3705647 0.16663384 -0.8616631 -0.43656105 -0.96237046 -0.6381352 -1.2887895 -0.12679036 -0.5151299 0.553082 
-2.6166382 0.5901148 -1.9049757 -0.08327602 -1.9564838 -1.0438571 -1.1740242 -0.86596966 0.6715155 -1.9067806 -2.0509279 1.4146315 0.99912953 -0.9656706 -0.5012343 0.3278904 -1.9219873 0.26465246 0.04968491 -2.5139189 -0.6862374 -0.16532217 -0.49479848 -1.0860822 -0.22444828 -0.61147743 0.2682432 -1.0005801 -0.18910794 -1.7402499 2.3064966 -0.059015438 -0.14536658 -0.8613509 -1.4659597 -0.7224967 -0.8625327 -2.085872 0.44151992 0.90669584 -0.31435987 -0.3154816 -1.0262282 -3.7377741 -1.9165882 -2.3240726 -0.94747925 1.7275956 0.72005683 0.72355855 -2.8426213 0.15193328 -2.0921695 0.26936468 -1.9243413 -1.3996007 -0.4020453 -0.9848751 1.2684118 0.09300489 -2.169425 -0.6854162 2.4176192 -0.38107395 0.048514597 -2.1798608 -0.33961594 -1.6565824 -0.1353894 1.620846 -0.91919017 0.711271 -0.46859547 -2.6247075 0.9944228 1.5691828 -1.340806 -2.0188713 -0.0042090295 0.33521372 -0.7659362 0.16328548 -1.9582759 0.5514914 -0.35600898 -1.6178305 -1.6645573 1.7302209 -0.903949 -1.4361184 -1.5691262 -3.0752275 -0.95082414 -0.79418594 -0.7782375 0.10193787 0.39586967 0.57114494 -1.420121 0.037914373 -0.4372076 -3.8085392 -0.22865632 -0.026964027 
-1.4212294 -1.4684831 -2.184284 -0.32935813 1.3047408 -1.3939048 1.0134146 0.017041966 -1.1292263 0.59443843 -1.8746097 0.5516457 0.74045837 0.09084864 -0.13696785 0.7127657 -0.8580642 -0.57264423 -3.1247106 -1.7496598 -1.3529317 -0.9481324 -0.122469306 -0.2172052 -2.3663378 -1.1991335 -1.3760589 -0.82309514 -0.5043867 -0.9865568 0.03537778 -0.72231406 0.16947064 -0.8171064 -0.21614566 -0.19724871 -0.118045166 0.31412393 -0.027186045 -1.4735559 -0.7590796 0.78306 0.10683421 -0.919956 -0.7746955 -1.0080343 -2.1470075 -1.9678378 -1.8845317 -0.2724194 -1.0283424 -0.43396392 0.25050622 -0.9518917 -1.5996718 -1.2946365 -0.9803578 -0.82820034 0.10039412 -2.5055804 -1.0642408 -0.33855072 1.0032237 -1.0017292 1.3005807 -0.71597904 -0.21934384 -0.93809104 -2.0055935 -0.45158333 -0.3713237 -2.1121163 -2.3848922 -1.2059807 -1.8611131 -2.3412645 -1.840133 -1.3737127 -0.42585608 -1.5647628 0.4582887 0.052708212 0.4822573 -0.26630113 -0.10233559 -0.8941221 0.33984375 -0.9659261 1.1279927 -2.4317565 0.50413555 0.20804195 -1.3589008 2.611087 -0.8336618 0.87064934 -0.114681125 -1.1452063 -0.63767827 -0.65797514 -1.0881518 -1.8006357 0.59130746 0.12940975 
-0.1243277 -2.0804074 -0.7201647 -1.8175138 -0.47035462 -0.13381669 -2.1967263 -0.09310247 -2.115349 -1.467417 -0.59224004 0.5537782 -0.58095515 0.92669874 -1.8294663 0.30379364 -1.2678826 -0.7587286 0.56148905 -0.4809677 -1.2020034 -0.43324563 0.5302956 -1.2910804 -2.9103026 -0.18212204 1.285251 -0.5366908 0.36891675 -1.5806518 -1.1774008 -0.6052734 -0.72140676 -1.1518806 -0.7497232 -0.05255348 -0.508156 0.83419657 0.39120308 0.64497334 -1.188628 -2.8918605 -1.2562815 -0.9958333 -0.43469918 -2.4691477 -0.70036066 0.19433053 -1.0526767 -1.705339 0.21508454 -0.62962043 1.0241947 -0.861477 -0.8496801 0.11841459 -0.6933238 -0.55610836 0.20092689 -0.25819266 0.35592297 0.14132437 -1.2845116 2.4021165 0.20363073 -0.382936 -0.7269227 -0.9026059 -0.44535202 -2.5238938 -0.68455285 -0.68295556 -0.60527617 0.05068474 0.2149406 -1.1207414 -0.13337748 -1.5650069 -0.43633854 -1.0824276 -1.8267456 -0.57978433 -1.10223 1.3432528 -0.17430072 -0.6435705 0.63911194 -2.3957984 0.80886525 -2.407894 -3.4639177 -1.561376 -0.9302951 -1.2003633 -1.3570542 0.25576216 0.3257717 -0.4311605 0.3143521 -1.2812093 -0.061014693 -1.3996265 0.79731244 -1.9248736 
-1.6402506 0.0668544 -0.8071767 -0.9009838 -0.5203956 -0.27124405 -0.5430017 -0.801456 -0.8952156 -0.03759199 -0.88779694 -0.4095623 -1.3358101 -3.001914 0.90555245 0.41232288 0.4053771 0.26922685 0.09220635 0.96304256 0.33264816 -0.7438016 -0.7226363 0.05680144 0.3871724 -0.16490546 0.4318239 0.33361435 0.9784609 -0.22079748 -2.6185532 -0.48667735 -0.5907673 1.7970694 0.6461178 -0.028615952 0.0918806 -2.2534351 -1.4270898 0.68432087 -0.72893757 -1.2863666 -2.3059986 0.44129437 0.2642974 -0.55890715 0.28715062 -0.5220181 -0.12956578 -0.30249742 -0.3970617 -0.98206466 0.7434669 -0.29273534 -1.5032771 -3.0818646 0.23917142 -0.77844423 -0.9832454 -1.3522294 0.5768974 0.7619792 0.5469414 -0.009431079 1.0175811 -0.8663567 -0.098634325 2.099421 0.21158601 -0.94535255 0.9091006 0.19262265 -0.18487783 0.6289866 0.68966126 -0.3285174 -0.099679776 -0.68550426 -0.688095 -0.9616603 0.49437243 -1.543631 -1.3326292 0.28104803 -1.2265751 -0.636627 0.7695658 -1.828986 -0.1298253 -0.54168534 -0.2662745 0.52019286 -0.83758014 -1.1944412 -0.038211904 0.6013207 0.6187144 -0.46534362 -0.30520982 -0.66384774 -0.68100154 -1.1335607 -1.9140685 0.27214706 
0.16417976 -2.790242 -1.098043 -0.6544606 -2.293687 -0.52967167 -2.5529294 -0.956244 1.9881518 -1.2625263 0.5418129 -1.5359849 -2.8691635 -0.30319798 -0.3501155 -1.5288409 -0.479502 0.31977198 -2.1490228 -0.38242823 -2.2289035 -1.5177932 -1.8994215 -2.502105 1.4438418 0.022068873 -1.1656761 0.3564361 0.65482 0.13590546 -0.7994605 -0.7288759 1.8680569 -0.6720987 -2.2353883 -0.40585482 -1.6732754 -1.304305 -0.7505643 -2.2859116 -0.30404958 0.8385307 0.45102593 -1.0591121 0.26541898 -0.0026907872 -3.217669 -0.6267556 -0.1472547 -0.19915448 -1.2125038 0.42307815 -0.21381363 -1.0676455 0.112793654 -0.92562395 -2.1229944 -0.71465117 0.36609048 -0.7973109 1.185601 -1.5501024 -1.9579182 0.38472915 2.1547334 -1.1671892 -1.1000371 -0.14205936 -0.78358155 -1.0610775 -0.4051465 -0.09916575 0.03866315 0.6738052 -0.17367221 0.24851814 0.3525322 -1.2070144 -0.5881259 -0.4835168 0.5905979 -1.4540987 -0.4558649 -0.10653451 -0.49625036 -0.93914616 -0.5874818 0.86292946 0.40170777 -1.0248609 0.15184331 0.99450403 0.5573485 -1.4965549 0.16383256 -0.22430804 -0.1563696 -1.1387919 -1.045234 0.44345018 -0.23148784 -0.41494158 -1.2289457 -0.26859203 
0.24811488 -2.2166646 -1.9286071 -2.2857149 0.28415188 0.38965726 1.417563 -1.2072487 -1.1878625 -0.94442344 -0.61546475 -0.94711816 -1.0353063 -1.006283 0.9192626 -0.016322782 0.64202577 1.2870898 -0.24916792 0.6805584 -2.2631466 -0.17303428 -0.07002478 -0.13365279 -2.3542454 -1.530009 -1.3292859 -0.09836242 -0.6419119 -0.034693383 -0.6488104 -0.29319003 -1.0445428 -0.266799 0.33812946 -0.0796236 -0.15477356 -1.8781141 -3.0559938 -3.2872672 0.3301272 1.0909064 -0.04684413 -2.8311198 2.0727077 -1.3613213 0.2846776 -1.4342911 -1.4338762 -0.73333883 -1.8109075 -0.35073918 -0.6561221 -1.3711019 1.1244125 -1.1674771 -0.36783156 -1.1234885 -0.33075115 -2.0276427 -0.5650522 -2.0773654 -0.19813955 -2.0514534 -2.4749885 -0.47771868 2.476685 -1.3932939 0.88812935 -0.8146287 -0.3122549 -0.18649341 1.4336569 -0.0038809793 -1.5667465 -0.81148905 0.8637352 -1.5638384 -0.4282877 -1.0241961 0.30320382 0.2169616 -0.9572415 1.0943924 -0.15634121 -0.6167973 -0.5150152 -0.24191725 -0.45854938 0.899715 -1.29125 -2.103421 -0.9940971 -0.8431178 1.7271644 0.23484486 -0.13237879 -0.87130547 -1.4195181 -0.17392741 0.049872942 1.5066103 0.86264914 -1.4195261 
0.027239747 0.058666263 -2.1252499 1.8361918 -0.5093045 -0.93581736 0.5421608 1.5818765 -0.20030698 -1.0885798 -0.005218111 -2.4663277 -0.7614215 -0.4358145 -0.6057364 -1.1530088 0.5619172 -0.21331516 -0.09139551 -2.276125 -1.62787 -0.11869048 -0.517925 1.7339226 -0.593955 0.65213025 0.52140415 -1.2043378 0.13757539 -0.7370051 -0.4472529 -1.7072226 -1.2310537 -1.1172732 0.79441476 -0.91605574 -0.24267124 -0.8847681 -1.3551656 -0.7111682 0.7773056 -0.3906957 0.14621852 1.3217316 -0.9124562 -0.7389257 -1.6918713 -0.6373947 -0.44152308 -1.2823497 0.1056768 -1.028796 -1.2698816 -0.61701185 0.008493935 -2.0308292 0.8276857 -0.60934126 1.9669558 0.38279834 -0.0877989 -0.9525859 -1.0072528 -0.66101706 -2.0298367 -0.47394472 -0.21102075 0.5542901 0.6692908 -2.847649 -0.6533013 0.403693 0.72637194 -0.39331234 -0.058889203 1.1474686 0.89681214 -2.0082216 -0.32054308 0.35371768 -0.5804044 -0.46857715 -0.5269572 -0.55086106 -0.79748374 -0.009964498 -0.2709028 -1.6757083 -1.0934039 -1.7045909 0.50077146 -0.2209944 0.13042611 -1.8129519 0.81980634 0.042229336 -2.2640648 -0.65367466 -2.359045 -0.20288679 0.011139625 -0.1410598 -0.15512568 -1.1807041 
-1.0459069 -1.2844552 0.54969144 -2.505827 -0.49418595 2.3243787 -0.3681576 -0.7330927 -0.4164705 -0.91420597 0.5384489 -3.327969 -0.72226423 -0.60678726 -1.0542376 0.8304592 -1.3628931 0.943239 0.72963816 -0.6569447 1.208134 -1.7373118 -2.1036358 -0.8182499 -1.3671448 -1.6904911 -1.0797609 -2.0308545 -0.10711605 -0.3268582 0.08939273 0.019145984 -0.7725793 -0.6064028 -1.1631482 -0.07740528 1.368194 0.8331873 0.054091934 -0.6076197 0.4512296 -0.06616348 0.3353438 -2.5155587 1.2679464 0.027340572 0.19350083 -0.24666895 -1.156904 1.5913311 0.29244024 -0.7199667 -0.15620771 -1.0827948 -2.726113 -0.43524358 -2.2660599 -1.070334 -2.8309913 -0.1953112 0.26553527 -1.4473662 -0.23262276 0.4841433 -2.035383 0.019490879 -1.316138 -1.3304845 0.1510925 -0.8938879 0.41170892 1.8740715 -2.211711 1.2266061 -3.285961 -0.008960731 1.5082263 0.7491498 -0.56488633 -0.13297723 -1.3243996 -0.49675888 -1.8134791 1.2503334 0.56539017 -0.7015918 -0.7602001 0.08469682 -1.3952161 1.2484114 0.6845387 -3.6778219 -2.273553 -0.2013833 -1.1926887 -0.28405315 1.3061428 -2.1760645 -0.13803403 -1.6836762 0.3193041 -1.2657913 -2.3977935 -2.5697443 
0.80131644 -0.3942749 -1.3917534 -0.2767407 -2.4628403 1.7102975 -1.089238 -0.063780576 -0.84553397 -0.90987545 1.1678861 0.3195537 0.20827594 0.63166547 0.5625895 -1.2249167 -0.63031036 1.2337248 1.5673524 -0.69347465 0.08490205 -1.1526822 -0.5077422 -3.0688193 1.234726 -2.1131032 -0.8974045 -0.7825107 -2.4021285 0.7092808 0.33637157 0.6695622 -1.177816 -0.4851784 -0.4291743 -0.031049041 0.29971844 -0.079455666 -0.50251764 -0.5549648 0.3875776 0.0073001813 -0.8364921 -0.10545751 -0.6783514 1.0805627 0.033413764 -0.2670291 -0.37215754 -0.20709117 0.7213025 0.13049394 -1.0247127 -0.6048719 0.013187193 -1.5472848 0.8683518 -0.3909773 -3.1028988 0.3440067 0.9702889 0.022011647 1.3289933 -0.976746 -0.027443925 1.926553 -0.94534576 -0.08308834 1.1980822 -2.0982583 -0.3644032 -0.31435826 0.96268654 -2.3467095 0.7684279 -0.5326276 1.3899578 -1.0276526 -0.81798214 -1.2138236 -1.7568805 -1.3168311 -3.4567554 1.0044595 -1.0938041 -0.7093011 -0.96507657 -2.6507514 -2.1294181 -1.9982282 0.54105866 -0.20307915 -0.82440037 -0.16401327 0.2553535 -0.3697089 -0.22553672 -0.79034936 -1.4894693 0.39588055 -0.6889801 0.9956923 -0.009022775 -2.4840329 
1.0332329 -0.036641303 -1.8079693 -0.54036474 1.3865765 -1.5571659 -0.27079555 -0.17664598 -0.4050378 0.04957042 1.2059046 0.356696 -1.6759446 0.35176283 -0.51315755 -1.8309308 -1.7931142 -0.3115131 1.4462101 0.9731869 1.4287943 0.5830171 -0.5516182 -2.095954 -0.019867802 -2.615933 0.045821253 0.988298 -0.84961706 -1.4978883 -0.394853 -1.1384804 -0.53821695 -0.32648933 -1.7541898 2.0703595 -2.16827 -0.6872482 -0.6692708 -1.6184696 0.6558577 -0.5783428 0.46329808 0.13941813 -0.5562894 -0.5259156 2.121231 -1.8787091 -0.36156026 -0.30352888 1.1014106 -1.9233326 -0.03588336 0.4217533 -0.44573957 -1.0357182 -1.0851263 0.75248605 -0.46737048 -0.49055794 -0.28888467 -0.6066846 0.09659003 0.6387982 -1.4690604 -0.40229857 -0.67230165 -0.47019526 0.31103894 -1.831384 -2.1393237 1.2962161 -1.6618139 -1.8345484 -0.49968493 -0.97635716 -3.4763298 -0.29815653 1.5684431 0.96366817 -0.73474526 -0.2575603 0.91092527 -0.19432364 -0.5840336 -0.7019984 0.35484776 0.079737544 -0.013463175 -0.69741005 -0.8218363 -0.18979694 -0.0003569075 -0.84309095 -0.05323838 -0.6083203 0.041749313 -2.1820338 -1.2712488 1.4891728 -0.043787107 -0.3151403 -2.2513359 -0.36896923 
0.5804484 -2.2191877 -0.8042735 -0.2654275 0.3868888 -0.8744539 -1.1955512 -0.066472754 -1.1345803 -1.2853413 1.1361538 1.0241455 -1.871393 0.08301614 -0.76873565 0.9110514 -0.8646741 -2.6434736 -1.6927963 -2.075318 0.6239799 -0.676839 -0.6681449 -2.774322 1.1096717 -1.0023537 -1.4762622 1.8519974 0.016655337 -1.5203782 -0.2152739 0.106986724 -0.46719092 -0.7667657 -0.79410774 -0.8627048 -1.3107382 -1.0217091 -1.6304176 -3.126922 0.32284042 0.025618851 0.49316952 -0.8621314 -0.57051504 0.83178365 -0.15153046 0.017804164 -1.9073585 1.871331 0.36039364 1.9416746 -1.4838104 1.2594119 0.29986385 -2.3371942 -1.1199275 -0.06787323 -1.4581687 1.2989298 -0.8884917 -0.7825372 -0.15539213 -0.9697428 -0.5567462 -0.04439304 -0.38667586 -0.7375537 0.37772 0.5188589 -2.5097194 0.55073977 0.2024141 0.9009033 -1.0915947 0.9350114 -0.9048593 -0.563451 -0.18006442 2.0748005 -0.24988642 1.5378504 -1.2743763 -1.3312377 0.12746444 -0.4436067 0.7320484 -1.4006716 -0.44162396 -0.31840524 -2.4522862 -0.55762845 1.7183855 -0.0131158745 0.54696786 0.80840206 -1.9014233 -1.5555966 -0.1618527 -0.8366578 -0.46698314 -2.300868 0.7780988 0.7610555 
0.8875761 -0.35210863 0.96363616 -0.1448273 1.3770683 -0.78737026 1.1953136 0.23399858 -2.4752164 0.15697102 -0.12419865 -1.5204227 -0.2564495 -0.10838467 -0.7522804 -1.9361885 2.0025296 -1.3732436 -1.1690363 -0.19611204 0.32170075 -1.9099747 -3.4730227 -1.5404502 1.0590357 -0.56909627 -0.75262034 -0.20493886 -0.0607452 -1.1735352 -0.76230365 0.13718542 -0.65212476 -0.13393977 -1.2659465 -0.4556477 -0.090097524 0.6356076 -3.7220762 -0.7961458 -0.72866917 -0.83578247 -2.852093 1.5640177 -0.6589959 -1.6441234 -1.3294803 0.37307826 -0.4060849 0.239994 0.39295506 -0.8438518 -1.3615936 0.031165851 1.49605 -0.038981542 -0.76422226 1.6950852 -1.8183831 -4.02465 -0.18983294 0.69726896 -0.11896704 0.093984485 1.1113019 0.5905101 -0.45081675 -0.08678889 -1.9650682 0.70118994 -0.84166235 -0.34544578 0.56403035 -0.35366735 -1.9569325 -1.4345254 0.31911072 -1.7211218 -0.48785812 -1.0610781 -0.35069054 2.106923 -0.21405818 -3.3163896 -0.0599669 -0.70347387 1.2949556 -0.016406067 0.15338068 -0.3808897 -1.5565183 0.5632666 0.51323706 -0.056229223 -0.87872523 0.07593992 -0.09754959 -2.2807255 -1.500511 -0.3958052 -1.8995981 -2.275364 -1.3405708 -1.9234217 
0.60115707 -0.85504675 -0.41691715 -1.0432044 -2.4714153 -0.7140885 1.2739223 -0.90035343 -1.1161563 -0.5258002 -0.49759227 0.19012666 0.37559977 -0.76207227 0.36787894 -1.6164933 -2.0307696 -0.2937821 -1.801916 0.36505058 -0.9225285 -1.2032942 -3.5778685 -0.017188326 -0.28043872 -2.7352471 0.40914768 -0.47798365 -1.7434984 0.33262834 -0.48907453 0.17074336 -0.96403974 -0.14794998 -0.8073113 -0.11831397 -0.8994528 -1.6209257 -0.122908086 -0.120079555 -0.2009015 -0.13282336 0.9565399 -1.3899152 -0.437612 -2.4384496 -0.32554734 -0.7015722 -0.05718779 0.3571127 -1.8036219 -0.18159074 1.116176 0.61209464 -0.4502614 2.2901845 0.12680686 -1.3589188 0.8039379 -0.27050036 -1.2879263 -2.3971257 -2.574849 -1.9158168 0.2495762 0.20690416 -0.7404721 -0.4078493 -0.7900413 -1.3261756 -0.42421994 -2.6224053 -0.94135886 -0.7139058 -0.5726682 0.29036415 -2.196603 -0.64424783 -0.2995792 -1.0226034 0.5755063 0.91927844 -0.5550876 -0.55310845 -0.5047402 1.5986946 -1.0845622 -1.6896132 -1.94319 -1.9376342 -1.780211 2.0026178 -0.5849408 -1.431784 -2.6011193 0.34314266 -0.32890883 -2.7408545 -0.47274318 -0.456908 -0.17736086 -0.28056902 0.047855448 0.49481642 
-3.6376324 -0.6450791 -1.1536677 -0.09577792 -1.0521767 -0.15972517 0.22989452 -1.6040804 -0.6834189 0.33450776 -1.482057 1.3836017 -1.1950167 -0.69108194 -1.1404175 -1.8948758 -2.6720269 -0.7876627 -1.306033 -0.9100118 -2.1934743 0.19067515 0.24405445 0.74468505 -0.88837343 -0.971831 -2.3069315 -1.5816176 -1.4313643 -1.3358933 -0.14642102 0.42767677 0.63147944 -1.3888143 -0.7442042 -0.6636502 -2.7773454 -1.35997 0.41040006 1.6768125 -0.0618217 -0.8485777 -1.4869162 -1.1961693 -1.0542121 0.014629539 -1.8906668 -1.708132 -0.1939728 0.19549146 -1.388104 -0.23656404 1.0416886 -0.63731045 -0.31822863 -0.350561 1.4361223 -0.2822342 -1.8645719 -0.12792727 -1.0275086 2.4971514 -1.7205572 0.19894755 0.41627407 0.33143887 -0.46433365 -0.05908199 -1.5211403 -2.1321716 -2.5258522 -0.23015389 -0.12089053 -1.5964558 0.52722883 -0.70400995 -0.8497703 0.35704136 0.23306465 1.9000987 -1.3008089 0.9370616 -1.4513836 -1.4079782 -0.7286846 -0.917888 -3.4501119 1.1433743 -1.5622946 0.28570747 -0.016054366 -0.293483 -3.205665 -0.86692667 -1.8914639 0.27997217 -1.335459 0.48534253 -0.07290715 -1.3767778 0.10512057 -0.8382932 0.43954346 -0.0994538 
-1.1232479 -1.6839687 -0.20317867 -0.076187134 1.017812 1.0490445 0.39226338 -0.44183967 -2.1344936 0.076180674 -0.47605225 0.50346583 -1.1391977 0.02821636 -0.8672832 0.57319313 -0.29363483 -1.0332855 -0.06630564 0.33969873 0.06447083 -1.580903 -0.22048488 0.21775106 0.050808508 -0.88282704 0.21254942 0.10332634 0.6095969 0.40369835 -1.6630268 0.37588435 -0.48836476 -0.0835337 1.1864904 -0.16841103 -1.6644106 -1.5804211 -3.1580765 0.9686408 -1.5469115 1.3195056 -1.6135561 -0.7545087 -1.1690804 -0.72189385 -1.9974703 2.0302262 0.12550972 -0.6131486 -2.6073675 -0.21095264 1.0612851 1.1609111 -0.74239063 -0.31553474 -2.8651946 -0.30782342 -1.4557146 -2.1979587 -0.20306103 -0.9373528 -3.1455514 -1.287146 0.30161113 -0.77757555 -0.36250153 -1.7299024 -1.6725873 -2.5151124 -1.8633219 -0.9884361 0.04861983 -0.43944412 -4.000711 -2.0508885 -0.60142004 -0.22824304 -0.98578256 -0.1516171 0.16180256 -0.7158726 0.44142187 0.10502776 0.32664138 -0.48972613 -3.9376645 -1.236875 -1.17718 0.27039075 -0.3245868 -0.38726488 0.0780741 2.7624273 -1.5204319 0.44899184 0.35884398 -0.50544447 -1.6782072 -0.30813804 -1.2582551 -1.0847998 -0.044542924 -0.7874952 
-0.010881849 0.12666914 -2.319374 -0.2807983 -2.0641952 -0.7672315 -2.1291938 -1.9105902 1.4904178 0.9756353 -1.4697049 -0.9020992 -0.9139322 1.0143459 -1.073412 0.38262174 -0.77375823 -0.48612067 1.4024086 -1.0104364 -0.26781973 1.8562242 1.0014973 -0.5689657 0.22518891 -0.11963674 2.0303278 0.484861 1.4209121 -0.8645369 -1.7220141 -1.7430084 -0.25953993 -0.7029523 -0.6858687 -0.76365995 -1.4368064 -0.5942869 -0.7883376 -0.5498195 -1.8028144 -2.9562664 -1.6342746 -1.5222011 -0.3138674 -1.5695131 0.20374218 -1.681631 0.4829508 -0.6514431 0.45493448 -1.0215437 -1.4803709 -1.3550634 -1.0049881 -0.08500876 -2.3059652 -0.99740237 -2.4714525 -1.3761148 0.81799847 -0.60704136 -1.0392721 -0.44736686 1.2303656 -0.5549295 -0.020044658 -1.0556741 -0.4036585 -1.1341553 -0.114536494 -0.6947699 0.27704155 -0.13592575 -0.28724304 -1.1502892 -0.93887544 -1.7573172 -0.3098618 1.0433599 0.16396466 -0.41173714 -1.6678265 1.6502784 1.693536 -0.5990102 -0.27460772 0.03020991 0.60185 0.8594026 -0.5064384 -2.7896612 -1.0303229 -1.3898205 0.095196806 -0.072563946 0.86391497 -0.83496076 -1.8018708 -2.241005 0.31360734 -2.407917 -3.112713 0.3675209 
-3.3956556 0.21846117 -0.871795 -0.064952515 -1.901712 -0.87577516 0.28274232 0.24818312 0.13301001 -1.0972354 -1.3986907 -1.113287 0.61806935 -2.5451307 -0.7071141 -1.9983944 -0.35911638 -0.22125141 -1.409143 -0.58157104 -0.09363429 0.28469318 -0.27498022 -2.5581489 -1.9421825 -0.45966798 -0.7031686 0.86416405 1.5549847 1.1095822 -0.20093548 -0.24239519 -1.3736646 2.0836873 2.2858825 -0.60266507 -0.58104956 0.26271 0.2825409 -1.7070793 -0.35902306 -1.8307979 0.8038147 0.62537885 -0.86284304 -1.9706196 -1.0917655 -1.2491077 -1.7025329 0.25728995 -0.53281605 -1.0931499 -1.9085981 -0.02022889 -1.7694979 -0.79895705 -1.1604373 -1.0462433 -1.8897113 -2.2370238 0.11464512 0.60850376 -0.68625766 -2.320606 -1.8584837 -0.08816512 0.18115158 1.2236017 0.18094477 -1.1489639 -1.259521 0.9293489 -0.8968019 0.477094 -1.0827348 -2.6620433 -0.94466186 0.25778496 -0.7105614 -0.68178064 -1.1815188 -0.87650865 -1.2917532 0.2245363 -0.50048804 -0.67411923 -0.19468133 -0.69635713 0.445412 0.8962492 -0.9380361 -0.28203613 -1.1860614 -0.7328211 -0.27423126 0.5727291 -0.21378589 0.5111252 -0.9812361 0.029608417 -0.43258303 -2.2907853 -1.9377261 -0.062368073 
-1.1928387 -2.4954987 0.1855163 0.7949149 -1.6924242 0.21930245 -0.8700329 -1.9116946 -0.78639174 -0.53401184 -0.12028435 -0.5213457 0.09762087 -0.23544237 -1.4656541 0.012559438 -1.5490409 1.0660658 -1.0954856 0.03585227 -0.8246415 -0.23449674 0.4265462 -1.8560452 -1.9322261 -0.1141066 -1.6841333 -1.8611013 -0.11726518 -1.1201035 -1.2803397 -1.1314287 1.8081421 -1.3018366 -0.17448272 -0.8770751 -0.7747401 -1.4846269 -0.46801737 -0.177553 -0.50565284 -0.46479896 2.258868 -0.899877 0.9446095 -0.3947935 0.1483354 0.032050494 -0.14738144 0.03227816 -1.6735466 -0.95605993 -2.2743545 -0.13594232 -0.7997029 -1.2170277 0.21453999 -0.016886203 -1.3572922 0.0026688818 0.6228942 -0.55098027 -0.6354755 0.6541536 0.38266385 0.29896763 -0.63143915 -0.9586547 -1.2850157 -0.87193877 -0.53905517 -0.0043554744 -0.87367 -1.4358857 0.9849345 -0.58253247 -0.08826307 1.1529684 -0.86676526 -1.0932648 1.596427 -2.7366168 -2.635227 -0.022380726 -1.5647302 -0.19389449 -1.1694455 -0.1567599 0.50573486 -1.9641051 0.4738351 -1.518542 -0.8438729 -1.4420812 1.0608776 0.03096222 -0.19495879 -0.3105098 -1.3820847 -0.53318685 -1.2037125 1.4663221 -2.6167908 -1.458002 
-0.8518984 -1.7325737 -0.64764696 -2.3593597 0.42806607 -2.3284063 0.07475283 -0.1614354 -0.037727445 0.16062434 0.4303632 -1.576275 -0.8149621 -2.350714 -1.8184881 -0.59173995 0.40019393 1.2700895 -1.2410054 2.4365566 -2.4416208 -2.9523818 1.855659 -0.30937654 -1.0036141 -0.6559844 -0.6793037 0.44257158 -1.7445405 -1.395587 -1.3768619 -3.3648546 0.06619566 -0.82698554 0.05833493 -0.7239283 -1.5251591 -1.1007024 0.28620765 0.577841 -3.4257936 -0.9448696 -0.0073069492 0.23412281 0.7058341 -1.3480393 1.2058213 -1.9143512 0.65894705 0.21445945 0.6635026 -0.4694776 0.73639333 -1.5448629 1.3120592 -0.107180566 -0.906798 -0.16390125 -1.1284174 -0.04143352 -0.47009304 -0.47912508 -0.57660115 -0.44591442 -1.9197831 0.041237123 2.2079341 -0.40673575 1.0187131 -1.5197176 -0.953061 -0.131723 -1.2544633 0.58359855 -1.6029452 -1.1576681 -0.55688006 0.23248377 -0.20922087 0.17864153 -1.0683699 -2.6792748 -0.38380834 -0.25228852 -0.3284525 -0.50608635 -0.5629163 -0.88799113 1.0618099 -1.2709342 0.9177821 -1.162834 -0.035034213 -0.28299043 1.0405189 0.24353185 1.2526559 -2.734794 -0.12416192 -0.93267417 -1.5965592 -1.5117323 1.3118516 -0.29129758 
